{"learner":{"attributes":{"best_iteration":"99","best_ntree_limit":"100","scikit_learn":"{\"use_label_encoder\": false, \"n_estimators\": 100, \"objective\": \"binary:logistic\", \"max_depth\": null, \"learning_rate\": null, \"verbosity\": null, \"booster\": null, \"tree_method\": null, \"gamma\": null, \"min_child_weight\": null, \"max_delta_step\": null, \"subsample\": null, \"colsample_bytree\": null, \"colsample_bylevel\": null, \"colsample_bynode\": null, \"reg_alpha\": null, \"reg_lambda\": null, \"scale_pos_weight\": null, \"base_score\": null, \"missing\": NaN, \"num_parallel_tree\": null, \"random_state\": null, \"n_jobs\": null, \"monotone_constraints\": null, \"interaction_constraints\": null, \"importance_type\": null, \"gpu_id\": null, \"validate_parameters\": null, \"predictor\": null, \"enable_categorical\": false, \"classes_\": [0, 1], \"n_classes_\": 2, \"_estimator_type\": \"classifier\"}"},"feature_names":[],"feature_types":[],"gradient_booster":{"model":{"gbtree_model_param":{"num_trees":"100","size_leaf_vector":"0"},"tree_info":[0,0,0,0,0,0,0,0,0,0,0,0,0,0,0,0,0,0,0,0,0,0,0,0,0,0,0,0,0,0,0,0,0,0,0,0,0,0,0,0,0,0,0,0,0,0,0,0,0,0,0,0,0,0,0,0,0,0,0,0,0,0,0,0,0,0,0,0,0,0,0,0,0,0,0,0,0,0,0,0,0,0,0,0,0,0,0,0,0,0,0,0,0,0,0,0,0,0,0,0],"trees":[{"base_weights":[-9.989858E-1,5.644599E-1,-1.4337544E0,1.4104308E0,-3.207547E-1,-2.0823245E-1,-1.6206124E0,-0E0,1.4987952E0,-8.103448E-1,2.6530612E-1,3.0716723E-1,-1.4193548E0,3.2E-1,-1.6550152E0,-1.1428572E0,8E-1,1.6676923E0,8.5106385E-1,4.4444445E-1,-1.1648352E0,8.411215E-1,-4.0860215E-1,9.25E-1,-4.2335767E-1,6.666667E-1,-1.5294118E0,-1.6216215E-1,1.2941177E0,-7.096774E-1,-1.6869838E0,1.4285715E0,-4E-1,1.8378378E0,1.2523365E0,1.3432835E0,-3.2258064E-1,1.1E0,-1.1111112E0,-3.3333334E-1,-1.6491228E0,1.2432432E0,-5.4054055E-2,-8.648649E-1,1.1304348E0,1.7E0,6.451613E-1,3.0985916E-1,-1.1428572E0,5E-1,-1.6173913E0,-1.0588236E0,5E-1,1.0588236E0,-1.05E0,-1.7361344E0,-9.461078E-1,1.8697674E0,5.4545456E-1,1.4468085E0,-1.1764706E-1,-1.8181819E-1,1.5333333E0,1.1111112E0,-7.692308E-1,1.625E0,-6.666667E-1,-1.4285715E0,-0E0,-1.5E0,5.4545456E-1,-1.7407408E0,-0E0,1.6981132E0,8E-2,1.0476191E0,-1.2E0,9.0909094E-1,-1.1044776E0,-2.2222222E-1,1.5555556E0,5E-1,1.7777778E0,-5E-1,8.8461536E-1,8.8372093E-1,-5E-1,1E0,-1.3333334E0,-0E0,-1.6756756E0,-1.3846154E0,-0E0,1.3846154E0,-4E-1,-0E0,1.3846154E0,4.4444445E-1,-1.3939394E0,-1.8383561E0,-1.5670996E0,9.2307694E-2,-1.5471698E0],"categories":[],"categories_nodes":[],"categories_segments":[],"categories_sizes":[],"default_left":[true,true,true,true,true,true,true,true,true,true,true,true,true,true,true,false,true,true,true,true,true,true,true,true,true,false,true,true,false,true,true,false,false,true,true,true,true,true,true,true,true,true,true,true,true,true,true,true,true,false,true,true,true,true,true,true,true,false,false,false,false,false,false,false,false,false,false,false,false,false,false,false,false,false,false,false,false,false,false,false,false,false,false,false,false,false,false,false,false,false,false,false,false,false,false,false,false,false,false,false,false,false,false],"id":0,"left_children":[1,3,5,7,9,11,13,15,17,19,21,23,25,27,29,-1,31,33,35,37,39,41,43,45,47,-1,49,51,-1,53,55,-1,-1,57,59,61,63,65,67,69,71,73,75,77,79,81,83,85,87,-1,89,91,93,95,97,99,101,-1,-1,-1,-1,-1,-1,-1,-1,-1,-1,-1,-1,-1,-1,-1,-1,-1,-1,-1,-1,-1,-1,-1,-1,-1,-1,-1,-1,-1,-1,-1,-1,-1,-1,-1,-1,-1,-1,-1,-1,-1,-1,-1,-1,-1,-1],"loss_changes":[6.710302E2,1.6164577E2,1.7639221E2,1.3740662E1,3.0629526E1,6.488588E1,4.522705E1,7.771429E0,9.930923E0,2.6316723E1,1.9357973E1,3.3452423E1,8.13662E0,6.0808907E0,1.8688354E1,0E0,4.3428574E0,3.4404144E0,1.4009056E1,1.4988889E1,1.777251E1,9.696388E0,1.7303944E1,7.578228E0,1.8422684E1,0E0,6.1204605E0,6.0214624E0,0E0,1.5105027E1,2.1507935E1,0E0,0E0,1.27034E0,7.297043E0,5.1336937E0,5.8174796E0,1.0358334E1,1.5873017E0,1.9272728E1,4.306038E0,9.652952E0,1.2934877E1,8.867726E0,3.652174E0,4.4445038E-2,8.942927E0,8.691123E0,8.476191E0,0E0,2.710228E0,1.4660635E0,5.330769E0,1.4660635E0,1.0899498E1,7.4001465E0,2.6201168E1,0E0,0E0,0E0,0E0,0E0,0E0,0E0,0E0,0E0,0E0,0E0,0E0,0E0,0E0,0E0,0E0,0E0,0E0,0E0,0E0,0E0,0E0,0E0,0E0,0E0,0E0,0E0,0E0,0E0,0E0,0E0,0E0,0E0,0E0,0E0,0E0,0E0,0E0,0E0,0E0,0E0,0E0,0E0,0E0,0E0,0E0],"parents":[2147483647,0,0,1,1,2,2,3,3,4,4,5,5,6,6,7,7,8,8,9,9,10,10,11,11,12,12,13,13,14,14,16,16,17,17,18,18,19,19,20,20,21,21,22,22,23,23,24,24,26,26,27,27,29,29,30,30,33,33,34,34,35,35,36,36,37,37,38,38,39,39,40,40,41,41,42,42,43,43,44,44,45,45,46,46,47,47,48,48,50,50,51,51,52,52,53,53,54,54,55,55,56,56],"right_children":[2,4,6,8,10,12,14,16,18,20,22,24,26,28,30,-1,32,34,36,38,40,42,44,46,48,-1,50,52,-1,54,56,-1,-1,58,60,62,64,66,68,70,72,74,76,78,80,82,84,86,88,-1,90,92,94,96,98,100,102,-1,-1,-1,-1,-1,-1,-1,-1,-1,-1,-1,-1,-1,-1,-1,-1,-1,-1,-1,-1,-1,-1,-1,-1,-1,-1,-1,-1,-1,-1,-1,-1,-1,-1,-1,-1,-1,-1,-1,-1,-1,-1,-1,-1,-1,-1],"split_conditions":[-3.8921685E0,-2.9596985E1,-3.121193E1,1.5227001E0,8.371956E0,-9.511726E-1,-2.4252386E0,7.105786E0,1.0421503E1,1.5E0,6.5E0,1.0040409E1,2.965E3,5E-1,5.7189543E-2,-3.4285718E-1,1.48E2,-3.3071907E1,-3.4011307E1,1.3E1,-2.6495613E1,-2.6010778E1,1.4180948E1,-3.7321346E1,-3.5196014E1,2.0000002E-1,7.8768315E0,6.3099146E0,3.8823533E-1,-2.6988419E1,5E-1,4.2857146E-1,-1.20000005E-1,9.08275E2,8.1155E2,3.2788658E0,1.8898809E-1,6.5E0,7.4745286E-1,2.1907501E0,4.45E1,7.7113733E0,1.15E2,5.35E1,9.417E1,-2.3360834E-1,4.3E1,1.3944583E1,-2.1371472E0,1.5E-1,-1.048206E1,9.9255005E1,6.7869995E2,7.11817E-1,5.45E1,5E-1,1.345E2,5.6093025E-1,1.6363637E-1,4.3404254E-1,-3.529412E-2,-5.454546E-2,4.6E-1,3.3333337E-1,-2.3076925E-1,4.875E-1,-2.0000002E-1,-4.2857146E-1,-0E0,-4.5000002E-1,1.6363637E-1,-5.222223E-1,-0E0,5.09434E-1,2.4E-2,3.1428576E-1,-3.6E-1,2.7272728E-1,-3.313433E-1,-6.666667E-2,4.666667E-1,1.5E-1,5.3333336E-1,-1.5E-1,2.653846E-1,2.651163E-1,-1.5E-1,3E-1,-4.0000004E-1,-0E0,-5.027027E-1,-4.1538465E-1,-0E0,4.1538465E-1,-1.20000005E-1,-0E0,4.1538465E-1,1.3333334E-1,-4.1818184E-1,-5.515069E-1,-4.7012988E-1,2.7692309E-2,-4.6415097E-1],"split_indices":[8,4,4,66,7,8,10,7,6,65,13,6,27,23,63,0,14,5,4,18,4,5,11,4,4,0,6,11,0,4,23,0,0,1,1,11,63,17,2,66,40,6,32,33,67,0,36,6,10,0,7,67,1,2,32,12,33,0,0,0,0,0,0,0,0,0,0,0,0,0,0,0,0,0,0,0,0,0,0,0,0,0,0,0,0,0,0,0,0,0,0,0,0,0,0,0,0,0,0,0,0,0,0],"split_type":[0,0,0,0,0,0,0,0,0,0,0,0,0,0,0,0,0,0,0,0,0,0,0,0,0,0,0,0,0,0,0,0,0,0,0,0,0,0,0,0,0,0,0,0,0,0,0,0,0,0,0,0,0,0,0,0,0,0,0,0,0,0,0,0,0,0,0,0,0,0,0,0,0,0,0,0,0,0,0,0,0,0,0,0,0,0,0,0,0,0,0,0,0,0,0,0,0,0,0,0,0,0,0],"sum_hessian":[9.85E2,2.1425E2,7.7075E2,1.0925E2,1.05E2,1.0225E2,6.685E2,6.5E0,1.0275E2,5.7E1,4.8E1,7.225E1,3E1,1.15E1,6.57E2,2.5E0,4E0,8.025E1,2.25E1,1.25E1,4.45E1,2.575E1,2.225E1,3.9E1,3.325E1,1.25E0,2.875E1,8.25E0,3.25E0,2.225E1,6.3475E2,2.5E0,1.5E0,5.45E1,2.575E1,1.575E1,6.75E0,9E0,3.5E0,1.7E1,2.75E1,1.75E1,8.25E0,1.75E1,4.75E0,9E0,3E1,1.675E1,1.65E1,1E0,2.775E1,3.25E0,5E0,3.25E0,1.9E1,5.94E2,4.075E1,5.275E1,1.75E0,2.25E1,3.25E0,1.75E0,1.4E1,1.25E0,5.5E0,7E0,2E0,2.5E0,1E0,7E0,1E1,2.6E1,1.5E0,1.225E1,5.25E0,4.25E0,4E0,1.75E0,1.575E1,1.25E0,3.5E0,1E0,8E0,5E0,2.5E1,9.75E0,7E0,1E0,1.55E1,1E0,2.675E1,2.25E0,1E0,2.25E0,2.75E0,1E0,2.25E0,3.5E0,1.55E1,3.64E2,2.3E2,1.525E1,2.55E1],"tree_param":{"num_deleted":"0","num_feature":"69","num_nodes":"103","size_leaf_vector":"0"}},{"base_weights":[-7.462603E-1,-1.1113688E0,3.3745286E-1,-3.7804973E-1,-1.2747413E0,9.301048E-1,-3.7371057E-1,4.2713083E-2,-1.1421576E0,-2.4131465E-1,-1.299929E0,1.1781546E0,4.0000352E-1,-5.879636E-1,6.3408434E-1,5.9648293E-1,-4.7838584E-1,7.0922625E-1,-1.287363E0,-1.4361608E0,5.2646923E-1,-1.3360369E0,-7.8042114E-1,1.2252928E0,-1.1772258E0,-6.94631E-2,9.613551E-1,-2.6615873E-1,-1.1261438E0,1.1552926E0,-3.5140988E-1,-6.329047E-2,1.158571E0,5.079138E-1,-8.871123E-1,1.213822E0,-2.189324E-1,8.505644E-2,-1.3542626E0,1.0051583E0,-5.4095244E-1,-1.372704E0,-7.939407E-1,-9.985248E-1,4.6778336E-1,5.488059E-1,1.3494873E0,8.9710337E-1,-4.74175E-1,1.4330738E0,-3.2015458E-2,4.7793442E-1,-6.221776E-1,-1.3006504E0,9.6479855E-2,-6.308466E-1,1.3941495E0,-1.079008E0,3.3912995E-1,8.3933413E-1,-8.3586454E-1,1.4089955E0,1.04112834E-1,9.458671E-1,-7.087632E-1,-1.0493921E0,6.325566E-1,-7.63987E-1,-1.5172666E0,-1.6501871E-1,1.3340628E0,-1.0810761E0,3.052189E-1,-1.3839995E0,-2.2612295E-1,1.1704998E0,-9.7456014E-1,-1.3808417E-1,-1.200642E0,1.0537105E0,-9.414349E-1,-8.111836E-1,8.7246394E-1,1.4799051E0,1.0244303E0,1.2922269E0,-5.6919564E-2,-8.207429E-1,4.2463738E-1,3.4228978E-1,1.5395598E0,4.504745E-1,-1.1507438E0,-5.595761E-1,9.3700695E-1,-8.156173E-1,4.2171836E-1,-1.4217029E0,-4.4501093E-1,9.385134E-1,-8.439836E-1,1.3005628E-1,1.5278693E0,1.0839709E0,-7.6645726E-1],"categories":[],"categories_nodes":[],"categories_segments":[],"categories_sizes":[],"default_left":[true,true,true,true,true,true,true,true,true,true,true,true,true,true,true,true,true,true,true,false,true,true,true,true,false,true,true,true,true,true,true,true,true,true,true,false,false,false,true,true,true,true,true,true,true,true,true,true,true,true,true,true,true,true,true,false,true,false,true,false,false,false,false,false,false,false,false,false,false,false,false,false,false,false,false,false,false,false,false,false,false,false,false,false,false,false,false,false,false,false,false,false,false,false,false,false,false,false,false,false,false,false,false,false,false],"id":1,"left_children":[1,3,5,7,9,11,13,15,17,19,21,23,25,27,29,31,33,35,37,-1,39,41,43,45,-1,47,49,51,53,55,57,59,61,63,65,-1,-1,-1,67,69,71,73,75,77,79,81,83,85,87,89,91,93,95,97,99,-1,101,-1,103,-1,-1,-1,-1,-1,-1,-1,-1,-1,-1,-1,-1,-1,-1,-1,-1,-1,-1,-1,-1,-1,-1,-1,-1,-1,-1,-1,-1,-1,-1,-1,-1,-1,-1,-1,-1,-1,-1,-1,-1,-1,-1,-1,-1,-1,-1],"loss_changes":[3.688446E2,8.299805E1,9.95812E1,4.132257E1,1.4508301E1,1.6452957E1,2.363538E1,2.445348E1,1.3178135E1,1.431169E1,9.380371E0,1.1120491E1,1.1278275E1,1.5177439E1,1.0355143E1,1.52960415E1,1.8068672E1,2.1217282E0,4.0320816E0,0E0,5.5141773E0,9.2092285E0,1.09522915E1,6.480301E0,0E0,9.85284E0,9.156519E0,1.5459496E1,7.1941833E0,6.384058E0,4.1177263E0,1.4530876E1,5.7198925E0,7.832168E0,8.373623E0,0E0,0E0,0E0,2.7604523E0,2.9395738E0,2.0035722E0,5.95459E0,1.3629528E1,5.5914993E0,6.28457E0,7.3176603E0,1.5332947E0,2.8850994E0,5.8438225E0,1.0067692E0,4.4253464E0,9.615756E0,8.248924E0,2.3774796E0,4.8063407E0,0E0,1.7776451E0,0E0,4.6123047E0,0E0,0E0,0E0,0E0,0E0,0E0,0E0,0E0,0E0,0E0,0E0,0E0,0E0,0E0,0E0,0E0,0E0,0E0,0E0,0E0,0E0,0E0,0E0,0E0,0E0,0E0,0E0,0E0,0E0,0E0,0E0,0E0,0E0,0E0,0E0,0E0,0E0,0E0,0E0,0E0,0E0,0E0,0E0,0E0,0E0,0E0],"parents":[2147483647,0,0,1,1,2,2,3,3,4,4,5,5,6,6,7,7,8,8,9,9,10,10,11,11,12,12,13,13,14,14,15,15,16,16,17,17,18,18,20,20,21,21,22,22,23,23,25,25,26,26,27,27,28,28,29,29,30,30,31,31,32,32,33,33,34,34,38,38,39,39,40,40,41,41,42,42,43,43,44,44,45,45,46,46,47,47,48,48,49,49,50,50,51,51,52,52,53,53,54,54,56,56,58,58],"right_children":[2,4,6,8,10,12,14,16,18,20,22,24,26,28,30,32,34,36,38,-1,40,42,44,46,-1,48,50,52,54,56,58,60,62,64,66,-1,-1,-1,68,70,72,74,76,78,80,82,84,86,88,90,92,94,96,98,100,-1,102,-1,104,-1,-1,-1,-1,-1,-1,-1,-1,-1,-1,-1,-1,-1,-1,-1,-1,-1,-1,-1,-1,-1,-1,-1,-1,-1,-1,-1,-1,-1,-1,-1,-1,-1,-1,-1,-1,-1,-1,-1,-1,-1,-1,-1,-1,-1,-1],"split_conditions":[1.5E0,-2.9684456E1,-2.8338781E1,1.1477995E1,2.3809524E-2,-3.9948586E4,5E-1,5.5E0,-4.174911E1,2.7781E0,2.2319294E1,1.651041E1,6.5102787E0,-3.7564392E0,1.725E2,-8.215139E-1,-3.3677834E1,-1.4284011E0,-1.7682946E0,-4.3084827E-1,1.13E2,2.005E2,7.6540613E0,-2.1761182E-1,-3.5316777E-1,3.5E0,1.41E2,3.5E0,1.756836E1,2.5906663E0,4.5E0,-4.5312002E-1,8.26E2,-1.0879017E0,9.871E1,3.6414662E-1,-6.567972E-2,2.5516933E-2,-4.4676145E4,3.5E0,2.035E2,6.055E2,-3.6946898E0,-6.0097206E-1,4.2693542E1,1.83322E0,-3.194541E1,7.65E2,6.9501915E0,1.5E0,-2.7369812E0,5.9775E2,3.5E0,-2.5557164E-2,6.2022486E0,-1.89254E-1,-1.483383E5,-3.237024E-1,-5.003386E4,2.5180024E-1,-2.5075936E-1,4.2269868E-1,3.123385E-2,2.8376016E-1,-2.1262896E-1,-3.1481764E-1,1.8976699E-1,-2.2919612E-1,-4.5518002E-1,-4.9505614E-2,4.0021887E-1,-3.2432285E-1,9.1565676E-2,-4.1519985E-1,-6.783689E-2,3.5114995E-1,-2.9236805E-1,-4.1425254E-2,-3.601926E-1,3.1611314E-1,-2.824305E-1,-2.4335508E-1,2.617392E-1,4.4397154E-1,3.073291E-1,3.876681E-1,-1.707587E-2,-2.4622288E-1,1.2739122E-1,1.02686934E-1,4.6186796E-1,1.3514236E-1,-3.4522316E-1,-1.6787283E-1,2.811021E-1,-2.446852E-1,1.2651551E-1,-4.2651087E-1,-1.3350329E-1,2.8155404E-1,-2.5319508E-1,3.9016884E-2,4.5836082E-1,3.251913E-1,-2.2993718E-1],"split_indices":[12,4,4,6,63,24,23,13,4,66,11,6,11,8,33,7,4,8,9,0,51,51,7,0,0,13,14,13,11,7,64,10,1,8,67,0,0,0,24,64,51,39,8,10,11,66,4,31,7,13,8,1,12,0,6,0,24,0,24,0,0,0,0,0,0,0,0,0,0,0,0,0,0,0,0,0,0,0,0,0,0,0,0,0,0,0,0,0,0,0,0,0,0,0,0,0,0,0,0,0,0,0,0,0,0],"split_type":[0,0,0,0,0,0,0,0,0,0,0,0,0,0,0,0,0,0,0,0,0,0,0,0,0,0,0,0,0,0,0,0,0,0,0,0,0,0,0,0,0,0,0,0,0,0,0,0,0,0,0,0,0,0,0,0,0,0,0,0,0,0,0,0,0,0,0,0,0,0,0,0,0,0,0,0,0,0,0,0,0,0,0,0,0,0,0,0,0,0,0,0,0,0,0,0,0,0,0,0,0,0,0,0,0],"sum_hessian":[9.302482E2,6.958031E2,2.344451E2,1.2737554E2,5.6842755E2,1.2770968E2,1.0673542E2,8.2751686E1,4.4623856E1,1.3776365E1,5.546512E2,8.616709E1,4.154259E1,8.836581E1,1.8369616E1,4.004808E1,4.270361E1,2.9628549E0,4.1661E1,5.0487833E0,8.727582E0,5.1713635E2,3.7514828E1,8.494684E1,1.2202525E0,2.3099987E1,1.8442604E1,5.623478E1,3.2131027E1,1.1902384E1,6.4672318E0,1.8831387E1,2.1216692E1,1.2440561E1,3.0263046E1,1.7199988E0,1.242856E0,1.9237905E0,3.973721E1,6.0657187E0,2.6618629E0,4.8293842E2,3.4197956E1,3.2105026E1,5.409805E0,1.4016721E1,7.093012E1,6.4585342E0,1.6641453E1,1.2204469E1,6.238135E0,1.808791E1,3.814687E1,2.80619E1,4.069127E0,1.210361E0,1.0692022E1,2.8751876E0,3.5920439E0,8.644874E0,1.0186513E1,1.6873224E1,4.343468E0,9.311419E0,3.129143E0,2.7622774E1,2.6402717E0,9.82944E0,2.990777E1,1.4401672E0,4.6255517E0,1.4553087E0,1.206554E0,4.7802216E2,4.916243E0,2.4180841E0,3.1779873E1,6.4271135E0,2.5677912E1,3.9992595E0,1.4105455E0,2.404956E0,1.1611764E1,4.8084946E1,2.2845175E1,4.316348E0,2.1421862E0,1.2073111E1,4.568342E0,1.4603072E0,1.0744162E1,4.7757587E0,1.4623762E0,5.4812584E0,1.260665E1,3.2367645E1,5.7792253E0,2.4004297E1,4.057602E0,2.1480064E0,1.9211205E0,1.2115437E0,9.480479E0,2.1578434E0,1.4342006E0],"tree_param":{"num_deleted":"0","num_feature":"69","num_nodes":"105","size_leaf_vector":"0"}},{"base_weights":[-5.9700173E-1,3.11055E-1,-8.930668E-1,8.600595E-1,-1.9024757E-1,-2.0150667E-2,-1.0072366E0,1.2589619E0,6.593735E-1,-9.691651E-1,-4.793213E-3,4.561402E-1,-7.0080835E-1,-4.493993E-1,-1.0716585E0,1.3115059E0,-8.168905E-2,8.5267544E-1,-1.8123344E-1,-1.2738814E0,1.3468032E-1,9.497726E-2,-1.345168E0,-2.522641E-1,8.0253404E-1,3.305164E-1,-9.768319E-1,3.138974E-1,-6.926891E-1,-8.430509E-1,-1.1570209E0,1.3394358E0,2.8015965E-1,5.285983E-2,9.9734175E-1,3.2546514E-1,-8.3821154E-1,-3.3890638E-1,-1.4359155E0,7.752916E-1,-6.994124E-1,-2.5395837E-1,4.604599E-1,-5.472037E-1,1.1019924E0,1.0558292E0,-9.9375494E-2,9.9549776E-1,-7.8652084E-1,1.0303712E0,-1.1272757E0,7.068668E-1,-8.7871224E-1,-8.600399E-1,2.960327E-1,-9.1966337E-1,4.5519376E-1,-2.6039633E-1,-1.1717083E0,1.3627269E0,4.0079713E-1,4.1852942E-1,-9.50972E-1,2.0444274E-1,1.1099257E0,8.923186E-1,-6.543732E-1,2.3831597E-1,-1.2880118E0,-9.533461E-1,5.5788374E-1,1.061664E0,8.315053E-2,4.6982077E-1,-5.424236E-1,8.821365E-1,-1.0763753E-1,7.0964336E-1,-9.371586E-1,-7.62467E-1,1.1899692E0,-8.9380836E-1,9.525827E-1,1.4820617E-1,1.2154135E0,1.4411883E-1,-1.2176181E0,9.115679E-1,-7.264144E-1,-2.7062452E-1,-9.994237E-1,5.875817E-1,-9.3577147E-1,8.870836E-1,-8.4573936E-1,7.146119E-1,-9.784589E-1,-3.211609E-1,1.255918E0,9.209864E-1,-9.521601E-1,-1.178398E0,3.7083542E-1],"categories":[],"categories_nodes":[],"categories_segments":[],"categories_sizes":[],"default_left":[true,true,true,true,true,true,true,true,true,true,true,true,true,true,true,true,false,true,true,true,true,true,false,true,true,true,true,true,true,true,true,true,false,true,true,true,true,true,false,true,false,true,true,true,false,true,true,true,false,false,true,true,true,true,true,true,true,true,true,false,false,false,false,false,false,false,false,false,false,false,false,false,false,false,false,false,false,false,false,false,false,false,false,false,false,false,false,false,false,false,false,false,false,false,false,false,false,false,false,false,false,false,false],"id":2,"left_children":[1,3,5,7,9,11,13,15,17,19,21,23,25,27,29,31,-1,33,35,37,39,41,-1,43,45,47,49,51,53,55,57,59,-1,61,63,65,67,69,-1,71,-1,73,75,77,-1,79,81,83,-1,-1,85,87,89,91,93,95,97,99,101,-1,-1,-1,-1,-1,-1,-1,-1,-1,-1,-1,-1,-1,-1,-1,-1,-1,-1,-1,-1,-1,-1,-1,-1,-1,-1,-1,-1,-1,-1,-1,-1,-1,-1,-1,-1,-1,-1,-1,-1,-1,-1,-1,-1],"loss_changes":[2.2529932E2,5.7006866E1,6.2911133E1,7.076065E0,1.5708847E1,2.4328259E1,1.9585632E1,2.3582268E0,1.1172153E1,7.2061367E0,1.2011658E1,1.1042422E1,9.114011E0,1.1272835E1,8.779236E0,5.122261E-1,0E0,6.3461876E0,4.767354E0,2.0108185E0,3.442964E0,1.0783874E1,0E0,6.701354E0,6.9371986E0,6.1812377E0,8.594402E0,7.687169E0,7.7758656E0,1.4302444E1,4.4525757E0,1.0383606E-1,0E0,3.8949912E0,3.9486923E0,5.2177763E0,3.2891216E0,2.5948205E0,0E0,6.1432695E-1,0E0,9.323315E0,9.966503E0,7.1372757E0,0E0,6.623411E0,7.0954795E0,7.5093937E-1,0E0,0E0,2.8604507E0,4.1519866E0,3.654194E-2,4.839884E0,5.6928234E0,1.3396507E1,5.654644E0,6.6861296E0,4.102051E0,0E0,0E0,0E0,0E0,0E0,0E0,0E0,0E0,0E0,0E0,0E0,0E0,0E0,0E0,0E0,0E0,0E0,0E0,0E0,0E0,0E0,0E0,0E0,0E0,0E0,0E0,0E0,0E0,0E0,0E0,0E0,0E0,0E0,0E0,0E0,0E0,0E0,0E0,0E0,0E0,0E0,0E0,0E0,0E0],"parents":[2147483647,0,0,1,1,2,2,3,3,4,4,5,5,6,6,7,7,8,8,9,9,10,10,11,11,12,12,13,13,14,14,15,15,17,17,18,18,19,19,20,20,21,21,23,23,24,24,25,25,26,26,27,27,28,28,29,29,30,30,31,31,33,33,34,34,35,35,36,36,37,37,39,39,41,41,42,42,43,43,45,45,46,46,47,47,50,50,51,51,52,52,53,53,54,54,55,55,56,56,57,57,58,58],"right_children":[2,4,6,8,10,12,14,16,18,20,22,24,26,28,30,32,-1,34,36,38,40,42,-1,44,46,48,50,52,54,56,58,60,-1,62,64,66,68,70,-1,72,-1,74,76,78,-1,80,82,84,-1,-1,86,88,90,92,94,96,98,100,102,-1,-1,-1,-1,-1,-1,-1,-1,-1,-1,-1,-1,-1,-1,-1,-1,-1,-1,-1,-1,-1,-1,-1,-1,-1,-1,-1,-1,-1,-1,-1,-1,-1,-1,-1,-1,-1,-1,-1,-1,-1,-1,-1,-1],"split_conditions":[-3.742621E0,-2.9676315E1,-3.2272045E1,-3.639147E1,1.34667E0,1.1548906E1,-1.3793702E0,9.4655E2,1.0421503E1,3.5E0,1.0972628E1,-2.1361104E-1,-7.371192E4,1.8898809E-1,8.05E1,4.89545E0,-2.4506716E-2,3.2134705E0,4.3072504E2,-6.2125463E0,-8.236649E4,7.771227E0,-4.0355042E-1,8.5785E1,3.3042457E4,-1.2393665E0,-4.345907E1,6.415119E0,5E-1,5E-1,-3.8887722E1,-3.861265E0,8.40479E-2,2.05E1,1.78185E0,-3.4048973E1,5.895E2,5.5E0,-4.3077466E-1,1.79E2,-2.0982373E-1,1.5E0,6.5E0,-3.7366558E1,3.3059773E-1,1.6865499E0,1.025E2,-4.2979393E1,-2.3595627E-1,3.0911136E-1,1.5E0,9.200365E0,3.646798E2,-3.381044E0,-2.1538185E1,6.904762E-2,8.9E1,9.867003E0,1.1E2,4.088181E-1,1.20239146E-1,1.2555884E-1,-2.852916E-1,6.1332826E-2,3.3297774E-1,2.676956E-1,-1.9631198E-1,7.1494795E-2,-3.8640356E-1,-2.8600383E-1,1.6736513E-1,3.184992E-1,2.494516E-2,1.4094624E-1,-1.6272709E-1,2.6464096E-1,-3.229126E-2,2.1289302E-1,-2.811476E-1,-2.2874011E-1,3.5699075E-1,-2.6814252E-1,2.8577483E-1,4.4461854E-2,3.6462405E-1,4.3235652E-2,-3.6528546E-1,2.734704E-1,-2.1792433E-1,-8.118736E-2,-2.9982713E-1,1.7627451E-1,-2.8073144E-1,2.6612508E-1,-2.5372183E-1,2.1438357E-1,-2.9353768E-1,-9.634828E-2,3.767754E-1,2.7629593E-1,-2.8564805E-1,-3.535194E-1,1.1125063E-1],"split_indices":[8,4,4,4,66,6,10,1,6,12,6,0,24,63,32,66,0,7,68,8,24,7,0,67,24,8,4,7,23,23,5,8,0,19,66,5,31,64,0,33,0,65,13,4,0,66,36,5,0,0,13,6,68,7,5,63,14,6,53,0,0,0,0,0,0,0,0,0,0,0,0,0,0,0,0,0,0,0,0,0,0,0,0,0,0,0,0,0,0,0,0,0,0,0,0,0,0,0,0,0,0,0,0],"split_type":[0,0,0,0,0,0,0,0,0,0,0,0,0,0,0,0,0,0,0,0,0,0,0,0,0,0,0,0,0,0,0,0,0,0,0,0,0,0,0,0,0,0,0,0,0,0,0,0,0,0,0,0,0,0,0,0,0,0,0,0,0,0,0,0,0,0,0,0,0,0,0,0,0,0,0,0,0,0,0,0,0,0,0,0,0,0,0,0,0,0,0,0,0,0,0,0,0,0,0,0,0,0,0],"sum_hessian":[8.359969E2,2.0553944E2,6.3045746E2,9.776064E1,1.0777879E2,7.305694E1,5.574005E2,3.095609E1,6.680455E1,1.9913828E1,8.786497E1,4.3175026E1,2.988191E1,5.8532913E1,4.988676E2,2.9809507E1,1.1465831E0,5.4302956E1,1.2501598E1,1.5485123E1,4.4287047E0,8.2642624E1,5.2223425E0,1.4267841E1,2.8907183E1,6.2673573E0,2.3614553E1,1.4077134E1,4.445578E1,1.3858965E2,3.6027795E2,2.8732672E1,1.0768359E0,8.526722E0,4.577623E1,7.3429236E0,5.1586747E0,2.743877E0,1.2741245E1,2.544749E0,1.8839558E0,4.2434483E1,4.0208145E1,1.22055645E1,2.0622768E0,2.2435629E1,6.471553E0,3.996822E0,2.2705355E0,1.2387278E0,2.2375826E1,1.0894612E1,3.182522E0,3.8131756E1,6.324022E0,1.3114224E2,7.4474E0,6.108338E0,3.5416962E2,2.75961E1,1.1365728E0,6.677392E0,1.8493304E0,6.0417476E0,3.9734486E1,4.7083707E0,2.6345532E0,1.6587902E0,3.4998844E0,1.5908406E0,1.1530364E0,1.422364E0,1.1223849E0,1.1913642E1,3.052084E1,2.2760855E1,1.7447289E1,2.6960928E0,9.509472E0,1.2195989E0,2.121603E1,3.7727396E0,2.6988132E0,1.1685507E0,2.8282714E0,1.444999E0,2.0930826E1,9.851606E0,1.0430062E0,1.0640831E0,2.118439E0,1.55967E0,3.6572086E1,4.3139315E0,2.01009E0,4.166841E0,1.269754E2,4.0853233E0,3.362077E0,2.1334713E0,3.9748666E0,3.5287534E2,1.2942904E0],"tree_param":{"num_deleted":"0","num_feature":"69","num_nodes":"103","size_leaf_vector":"0"}},{"base_weights":[-4.8864624E-1,2.1634296E-1,-7.590041E-1,6.0597235E-1,-2.5515637E-1,-2.8638187E-1,-9.221885E-1,8.3617187E-1,2.1893838E-1,8.6963123E-1,-3.6015546E-1,1.22152336E-1,-7.2895396E-1,-1.0087292E0,-5.0029916E-1,9.0105194E-1,-3.5887197E-1,1.0634027E0,3.6700185E-2,2.4026445E-1,1.5507537E0,2.4647088E-1,-5.305529E-1,6.633891E-1,-2.5680473E-1,-2.1794981E-1,-1.0678627E0,-1.0259159E0,5.297736E-1,3.423548E-2,-7.1873385E-1,2.4840863E-1,1.0362692E0,-8.9155996E-1,4.3874943E-1,1.1591183E0,2.6356637E-1,-3.8651428E-1,3.9546996E-1,6.336491E-1,-7.454365E-1,1.1342338E0,-4.0656874E-1,-1.0201641E0,-2.5829396E-1,3.431916E-2,1.0652233E0,-3.9150697E-1,1.2157761E0,2.3195057E-1,-7.1850127E-1,-1.110536E0,-2.4546625E-2,-1.0460254E0,-6.9856726E-2,1.42208E0,-7.948163E-1,1.0037588E0,-5.610802E-1,1.1947206E-1,-8.49882E-1,6.8265593E-1,-1.2115326E0,1.13275E0,5.441395E-1,3.362425E-1,-9.163549E-1,-5.055339E-1,7.0788866E-1,9.953796E-1,-4.1769605E-2,-9.0245076E-2,1.3111494E0,5.140548E-1,-8.389849E-1,-1.2760109E0,-1.2990797E-1,2.5319907E-1,-7.0514864E-1,5.110714E-1,-1.0459644E0,5.9771158E-2,1.2709377E0,1.6742417E-1,-7.600857E-1,1.7242821E0,-9.390693E-2,-2.662833E-1,8.049015E-1,-1.0638734E0,2.479353E-3,-1.1708386E0,-4.132551E-2,-1.0873802E0,-5.116921E-1,1.2662381E0,-5.2916044E-1,1.3278507E0,-3.477073E-1,-8.0901223E-1,1.1996157E0,-4.3054956E-1,1.5294391E0,-1.9555722E-1,-1.0263705E0],"categories":[],"categories_nodes":[],"categories_segments":[],"categories_sizes":[],"default_left":[true,true,true,true,true,true,true,true,true,true,true,true,true,true,true,true,true,true,true,true,false,true,true,true,true,true,true,true,true,true,true,true,true,false,false,false,false,true,true,true,false,true,true,true,true,true,true,true,true,true,true,true,false,true,true,false,false,true,true,true,true,false,false,false,false,false,false,false,false,false,false,false,false,false,false,false,false,false,false,false,false,false,false,false,false,false,false,false,false,false,false,false,false,false,false,false,false,false,false,false,false,false,false,false,false],"id":3,"left_children":[1,3,5,7,9,11,13,15,17,19,21,23,25,27,29,31,33,35,37,39,-1,41,43,45,47,49,51,53,55,57,59,61,63,-1,-1,-1,-1,65,67,69,-1,71,73,75,77,79,81,83,85,87,89,91,-1,93,95,-1,-1,97,99,101,103,-1,-1,-1,-1,-1,-1,-1,-1,-1,-1,-1,-1,-1,-1,-1,-1,-1,-1,-1,-1,-1,-1,-1,-1,-1,-1,-1,-1,-1,-1,-1,-1,-1,-1,-1,-1,-1,-1,-1,-1,-1,-1,-1,-1],"loss_changes":[1.4101375E2,3.792865E1,4.0948517E1,9.873936E0,1.1383846E1,2.5148544E1,1.3981476E1,5.783806E0,6.648196E0,3.1837997E0,9.066069E0,1.5128175E1,1.131369E1,9.2229E0,8.141605E0,5.662674E0,2.235915E0,2.8223705E-1,5.7368493E0,2.6031911E0,0E0,1.1846805E1,8.774696E0,7.6258335E0,9.1274805E0,6.436669E0,1.7460098E0,6.1746216E0,6.195854E0,1.27539835E1,5.53166E0,8.96013E0,2.0072174E0,0E0,0E0,0E0,0E0,6.9631414E0,6.099661E0,1.1332636E0,0E0,1.9786348E0,5.2289267E0,5.275812E0,1.0443803E1,7.151974E0,3.7429733E0,8.515225E0,2.7584877E0,4.6158733E0,3.3451166E0,2.4172974E0,0E0,6.474823E0,5.4357867E0,0E0,0E0,4.1382217E0,6.963092E0,6.5212383E0,4.7461014E0,0E0,0E0,0E0,0E0,0E0,0E0,0E0,0E0,0E0,0E0,0E0,0E0,0E0,0E0,0E0,0E0,0E0,0E0,0E0,0E0,0E0,0E0,0E0,0E0,0E0,0E0,0E0,0E0,0E0,0E0,0E0,0E0,0E0,0E0,0E0,0E0,0E0,0E0,0E0,0E0,0E0,0E0,0E0,0E0],"parents":[2147483647,0,0,1,1,2,2,3,3,4,4,5,5,6,6,7,7,8,8,9,9,10,10,11,11,12,12,13,13,14,14,15,15,16,16,17,17,18,18,19,19,21,21,22,22,23,23,24,24,25,25,26,26,27,27,28,28,29,29,30,30,31,31,32,32,37,37,38,38,39,39,41,41,42,42,43,43,44,44,45,45,46,46,47,47,48,48,49,49,50,50,51,51,53,53,54,54,57,57,58,58,59,59,60,60],"right_children":[2,4,6,8,10,12,14,16,18,20,22,24,26,28,30,32,34,36,38,40,-1,42,44,46,48,50,52,54,56,58,60,62,64,-1,-1,-1,-1,66,68,70,-1,72,74,76,78,80,82,84,86,88,90,92,-1,94,96,-1,-1,98,100,102,104,-1,-1,-1,-1,-1,-1,-1,-1,-1,-1,-1,-1,-1,-1,-1,-1,-1,-1,-1,-1,-1,-1,-1,-1,-1,-1,-1,-1,-1,-1,-1,-1,-1,-1,-1,-1,-1,-1,-1,-1,-1,-1,-1,-1],"split_conditions":[-3.5615513E0,-2.7896385E1,-2.8174534E1,-4.936572E0,5.7189543E-2,9.914404E0,-5.4102384E-2,4.8075534E2,-3.7146637E1,2.909E3,-2.4607778E0,-1.9814856E-1,-3.407492E1,1.105E2,-1.7968761E1,1.9119201E0,1.1391438E1,1.0865E3,5.400052E0,6.5E0,4.6522614E-1,1.5E0,1.8455E0,4E2,2.21E2,1.5E0,2.165E2,4.35E1,8.5E0,4.1223834E2,-9.419802E-1,9.374407E0,7.5E0,-2.67468E-1,1.3162483E-1,3.477355E-1,7.906991E-2,-6.502978E4,2.3134599E0,-4.7336864E0,-2.2363095E-1,5.895E2,-1.7997434E0,6.285E2,7.0744995E2,7.5E0,6.2309998E1,-3.3961876E1,3.05E1,4.2927632E-1,-4.2190242E-1,5E-1,-7.3639876E-3,2.1205853E1,-9.090748E4,4.2662403E-1,-2.3844491E-1,4.00705E0,4.05E1,-1.8749049E0,4.45E1,2.0479679E-1,-3.634598E-1,3.3982503E-1,1.6324186E-1,1.00872755E-1,-2.749065E-1,-1.5166017E-1,2.1236661E-1,2.986139E-1,-1.2530882E-2,-2.7073523E-2,3.9334482E-1,1.5421644E-1,-2.5169548E-1,-3.828033E-1,-3.8972393E-2,7.595973E-2,-2.115446E-1,1.5332142E-1,-3.137893E-1,1.7931348E-2,3.8128132E-1,5.0227255E-2,-2.2802572E-1,5.172847E-1,-2.8172081E-2,-7.988499E-2,2.4147046E-1,-3.1916204E-1,7.4380595E-4,-3.512516E-1,-1.2397653E-2,-3.2621408E-1,-1.5350763E-1,3.7987146E-1,-1.5874813E-1,3.9835522E-1,-1.043122E-1,-2.4270368E-1,3.5988474E-1,-1.2916487E-1,4.5883176E-1,-5.8667168E-2,-3.0791116E-1],"split_indices":[8,4,4,8,63,6,0,68,4,27,10,10,4,53,4,66,11,29,11,13,0,18,66,35,51,19,37,56,54,68,9,6,13,0,0,0,0,24,66,8,0,28,9,35,1,13,67,5,26,63,7,22,0,11,24,0,0,66,18,8,37,0,0,0,0,0,0,0,0,0,0,0,0,0,0,0,0,0,0,0,0,0,0,0,0,0,0,0,0,0,0,0,0,0,0,0,0,0,0,0,0,0,0,0,0],"split_type":[0,0,0,0,0,0,0,0,0,0,0,0,0,0,0,0,0,0,0,0,0,0,0,0,0,0,0,0,0,0,0,0,0,0,0,0,0,0,0,0,0,0,0,0,0,0,0,0,0,0,0,0,0,0,0,0,0,0,0,0,0,0,0,0,0,0,0,0,0,0,0,0,0,0,0,0,0,0,0,0,0,0,0,0,0,0,0,0,0,0,0,0,0,0,0,0,0,0,0,0,0,0,0,0,0],"sum_hessian":[7.379822E2,2.0461775E2,5.3336444E2,1.1187951E2,9.273824E1,1.3759895E2,3.957655E2,6.9425964E1,4.245354E1,7.296224E0,8.544202E1,7.1927414E1,6.567154E1,3.2724738E2,6.851812E1,6.60842E1,3.3417645E0,6.6771946E0,3.577635E1,4.495275E0,2.8009493E0,1.8639105E1,6.680291E1,2.9312271E1,4.2615143E1,2.6842182E1,3.8829357E1,3.2396155E2,3.2858026E0,2.0121582E1,4.839654E1,1.182868E1,5.425552E1,1.9330273E0,1.4087373E0,5.5623584E0,1.1148361E0,1.6378498E1,1.9397848E1,3.468275E0,1.0269997E0,7.5875254E0,1.10515785E1,2.2890757E1,4.3912155E1,1.1848656E1,1.7463615E1,3.9716286E1,2.8988547E0,1.4418926E1,1.2423256E1,3.7241684E1,1.5876708E0,3.1719562E2,6.76593E0,1.9192827E0,1.3665198E0,7.393892E0,1.272769E1,6.559827E0,4.1836716E1,9.527279E0,2.3014011E0,4.4273987E1,9.981535E0,7.0825562E0,9.295942E0,4.8351955E0,1.4562654E1,1.9501313E0,1.5181439E0,1.0197139E0,6.5678115E0,3.4716222E0,7.5799565E0,1.7444231E1,5.4465265E0,2.0677263E1,2.323489E1,8.586264E0,3.2623918E0,3.18536E0,1.4278255E1,1.5999543E1,2.3716743E1,1.8600825E0,1.0387721E0,7.9986243E0,6.4203024E0,8.078035E0,4.345221E0,3.516344E1,2.0782428E0,2.9344913E2,2.3746502E1,1.2814327E0,5.4844975E0,5.9778347E0,1.416057E0,1.1630464E1,1.0972259E0,5.218682E0,1.341145E0,9.335123E0,3.250159E1],"tree_param":{"num_deleted":"0","num_feature":"69","num_nodes":"105","size_leaf_vector":"0"}},{"base_weights":[-4.013503E-1,-8.425719E-3,-7.5944024E-1,4.3354636E-1,-3.6476275E-1,-3.1936955E-1,-8.551651E-1,9.7590107E-1,2.644733E-1,2.9143375E-1,-4.8177692E-1,3.9374647E-1,-5.717849E-1,-8.916688E-1,-1.4295503E-1,1.0908827E0,-1.4835209E-1,4.8450625E-1,-3.0436084E-1,6.4661705E-1,-1.9455701E-1,-5.556396E-1,6.6767603E-1,8.225746E-1,-5.905903E-1,-1.0303025E-1,-8.022308E-1,-9.127737E-1,6.9147155E-2,1.1284477E0,-7.5601697E-1,3.4748584E-1,1.1536043E0,5.32904E-1,-7.189559E-1,2.5490978E-1,9.2671996E-1,1.3713351E-1,-7.638939E-1,1.0660964E0,1.41679E-1,-4.9045923E-1,6.3817304E-1,2.654818E-1,-6.477236E-1,1.1128485E0,-3.8941315E-1,-8.459186E-1,1.087597E0,-9.9434847E-1,4.9912584E-1,9.930865E-1,-6.154062E-1,1.4905927E-1,-9.484326E-1,-9.451818E-1,-3.0225515E-1,-5.66872E-1,8.627955E-1,1.4724644E0,1.1022602E-1,-1.0115461E0,6.9938487E-1,-2.6811054E-1,8.283568E-1,1.1893016E0,1.102293E-1,5.58315E-1,-4.201507E-1,1.0812969E0,-8.000902E-2,5.745734E-1,-6.629561E-1,-9.341222E-1,3.980988E-1,-6.1174657E-2,1.3226447E0,-8.4940237E-1,6.562743E-1,3.4800184E-1,-9.3932915E-1,1.0470666E0,-1.9260909E-1,-3.4648773E-1,8.4470093E-1,-8.295077E-1,-2.3183872E-1,1.5979115E0,-2.0051846E-1,3.2987487E-1,-8.401948E-1,-3.8489938E-2,1.4151952E0,1.2876836E0,1.8591523E-2,-8.290234E-1,4.9454606E-1,-8.187191E-1,1.0525603E0,-1.0389428E0,1.9315822E-1,-5.5169004E-1,-1.0100285E0,8.274436E-1,-6.9059193E-1,-8.8074625E-1,2.2961123E-1,1.3579156E0,-7.41634E-2,-1.1028467E0,-1.4705929E-1],"categories":[],"categories_nodes":[],"categories_segments":[],"categories_sizes":[],"default_left":[true,true,true,true,true,true,true,true,true,true,true,true,true,true,true,true,true,true,true,true,true,true,true,true,true,true,true,true,true,true,true,true,true,false,false,true,true,true,true,true,true,true,true,true,true,true,true,false,true,false,false,true,true,true,true,true,true,true,true,false,false,true,false,false,false,false,false,false,false,false,false,false,false,false,false,false,false,false,false,false,false,false,false,false,false,false,false,false,false,false,false,false,false,false,false,false,false,false,false,false,false,false,false,false,false,false,false,false,false,false,false],"id":4,"left_children":[1,3,5,7,9,11,13,15,17,19,21,23,25,27,29,31,33,35,37,39,41,43,45,47,49,51,53,55,57,59,61,63,65,-1,-1,67,69,71,73,75,77,79,81,83,85,87,89,-1,91,-1,-1,93,95,97,99,101,103,105,107,-1,-1,109,-1,-1,-1,-1,-1,-1,-1,-1,-1,-1,-1,-1,-1,-1,-1,-1,-1,-1,-1,-1,-1,-1,-1,-1,-1,-1,-1,-1,-1,-1,-1,-1,-1,-1,-1,-1,-1,-1,-1,-1,-1,-1,-1,-1,-1,-1,-1,-1,-1],"loss_changes":[9.1786804E1,4.9307552E1,1.41050415E1,1.2557312E1,1.3448677E1,1.1488769E1,7.145279E0,4.4072704E0,1.3654388E1,4.760983E0,1.2891243E1,7.6410184E0,4.9538155E0,5.4552307E0,1.2412109E1,9.9396133E-1,1.9098666E0,7.703583E0,6.336093E0,3.1840172E0,3.2962759E0,1.0690319E1,4.8371944E0,6.325815E0,3.015598E0,9.885804E0,4.468195E0,4.863846E0,3.8432968E0,1.6681614E0,4.651083E0,1.3347251E0,8.803482E-1,0E0,0E0,1.1060106E1,4.1864643E0,6.160096E0,3.3788605E0,2.5238552E0,4.789564E0,3.901687E0,1.4275823E0,5.516253E0,9.286041E0,4.6806393E0,1.4165242E0,0E0,4.1075983E0,0E0,0E0,1.5960813E0,3.2246528E0,5.2411413E0,3.0009804E0,5.7371216E0,6.9718204E0,1.2752814E0,1.6560276E0,0E0,0E0,5.82037E-1,0E0,0E0,0E0,0E0,0E0,0E0,0E0,0E0,0E0,0E0,0E0,0E0,0E0,0E0,0E0,0E0,0E0,0E0,0E0,0E0,0E0,0E0,0E0,0E0,0E0,0E0,0E0,0E0,0E0,0E0,0E0,0E0,0E0,0E0,0E0,0E0,0E0,0E0,0E0,0E0,0E0,0E0,0E0,0E0,0E0,0E0,0E0,0E0,0E0],"parents":[2147483647,0,0,1,1,2,2,3,3,4,4,5,5,6,6,7,7,8,8,9,9,10,10,11,11,12,12,13,13,14,14,15,15,16,16,17,17,18,18,19,19,20,20,21,21,22,22,23,23,24,24,25,25,26,26,27,27,28,28,29,29,30,30,31,31,32,32,35,35,36,36,37,37,38,38,39,39,40,40,41,41,42,42,43,43,44,44,45,45,46,46,48,48,51,51,52,52,53,53,54,54,55,55,56,56,57,57,58,58,61,61],"right_children":[2,4,6,8,10,12,14,16,18,20,22,24,26,28,30,32,34,36,38,40,42,44,46,48,50,52,54,56,58,60,62,64,66,-1,-1,68,70,72,74,76,78,80,82,84,86,88,90,-1,92,-1,-1,94,96,98,100,102,104,106,108,-1,-1,110,-1,-1,-1,-1,-1,-1,-1,-1,-1,-1,-1,-1,-1,-1,-1,-1,-1,-1,-1,-1,-1,-1,-1,-1,-1,-1,-1,-1,-1,-1,-1,-1,-1,-1,-1,-1,-1,-1,-1,-1,-1,-1,-1,-1,-1,-1,-1,-1,-1],"split_conditions":[-2.2116628E0,-2.8144653E1,-5.8474267E-1,-3.644452E1,-2.2593746E0,1.8898809E-1,5E-1,9.07725E2,9.835991E0,6.283885E-1,2.6407612E1,3.310069E0,-2.908561E1,6.325E2,2.815E2,-2.338966E-1,-4.2228092E1,7.1696167E0,4.3049878E2,3.5E0,4.5E1,-2.7668645E0,1.08E2,2.34356E0,1.6228071E-1,7.8330507E0,4.99E2,4.35E1,1.1E2,1.49E2,5E-1,2.85E1,1.1945E3,1.5987122E-1,-2.1568677E-1,2.5E0,3.7037601E0,-3.4108055E1,5.25E1,4.65E1,1.018078E1,4.6385984E0,2.8958333E-1,5.461587E0,3.00316E0,4.2647606E1,6.6793174E-1,-2.537756E-1,7.655121E-1,-2.9830456E-1,1.4973776E-1,9.5E0,7.4456525E-1,2.2695E0,3.653E3,5.8355E2,-1.2229958E0,1.56E2,6E1,4.4173935E-1,3.3067808E-2,3.35E1,2.0981547E-1,-8.043317E-2,2.4850705E-1,3.5679048E-1,3.306879E-2,1.674945E-1,-1.2604521E-1,3.243891E-1,-2.4002707E-2,1.7237203E-1,-1.9888684E-1,-2.8023666E-1,1.1942964E-1,-1.8352399E-2,3.9679343E-1,-2.5482073E-1,1.9688231E-1,1.0440055E-1,-2.8179875E-1,3.1412E-1,-5.778273E-2,-1.0394632E-1,2.5341028E-1,-2.4885233E-1,-6.955162E-2,4.7937346E-1,-6.015554E-2,9.896246E-2,-2.5205845E-1,-1.15469815E-2,4.2455858E-1,3.863051E-1,5.577457E-3,-2.4870704E-1,1.4836383E-1,-2.4561574E-1,3.1576812E-1,-3.1168285E-1,5.7947468E-2,-1.6550702E-1,-3.0300856E-1,2.482331E-1,-2.071776E-1,-2.6422387E-1,6.8883374E-2,4.073747E-1,-2.224902E-2,-3.3085403E-1,-4.411779E-2],"split_indices":[8,4,10,4,10,63,23,1,6,2,11,7,4,39,31,0,4,7,68,25,48,9,36,66,63,6,28,26,37,36,54,18,29,0,0,65,66,5,49,37,7,6,63,11,66,11,2,0,2,0,0,18,63,66,27,1,8,33,30,0,0,26,0,0,0,0,0,0,0,0,0,0,0,0,0,0,0,0,0,0,0,0,0,0,0,0,0,0,0,0,0,0,0,0,0,0,0,0,0,0,0,0,0,0,0,0,0,0,0,0,0],"split_type":[0,0,0,0,0,0,0,0,0,0,0,0,0,0,0,0,0,0,0,0,0,0,0,0,0,0,0,0,0,0,0,0,0,0,0,0,0,0,0,0,0,0,0,0,0,0,0,0,0,0,0,0,0,0,0,0,0,0,0,0,0,0,0,0,0,0,0,0,0,0,0,0,0,0,0,0,0,0,0,0,0,0,0,0,0,0,0,0,0,0,0,0,0,0,0,0,0,0,0,0,0,0,0,0,0,0,0,0,0,0,0],"sum_hessian":[6.513928E2,3.1107755E2,3.403153E2,1.3875732E2,1.7232022E2,6.1575237E1,2.7874005E2,3.1842026E1,1.069153E2,2.5852577E1,1.4646765E2,1.5951012E1,4.5624226E1,2.6491037E2,1.3829694E1,2.891451E1,2.9275143E0,7.720109E1,2.9714212E1,1.4745447E1,1.1107131E1,1.3810947E2,8.358175E0,1.1225108E1,4.7259035E0,1.5513993E1,3.0110231E1,2.5926544E2,5.644938E0,4.225642E0,9.604052E0,2.7586136E0,2.6155897E1,1.3644902E0,1.5630242E0,5.1854683E1,2.5346407E1,1.5512361E1,1.4201851E1,7.447262E0,7.2981853E0,8.49835E0,2.6087804E0,1.37365265E1,1.2437294E2,5.844239E0,2.5139356E0,1.2381635E0,9.986944E0,3.5121198E0,1.2137835E0,4.643034E0,1.0870959E1,4.0085154E0,2.6101717E1,2.4567609E2,1.358934E1,3.2922845E0,2.3526535E0,2.8250542E0,1.400588E0,8.4291E0,1.1749508E0,1.4038701E0,1.3547435E0,2.5155386E1,1.0005124E0,3.5894764E1,1.5959921E1,2.1908434E1,3.4379728E0,1.02113085E1,5.3010526E0,1.2558214E1,1.6436365E0,1.5218427E0,5.925419E0,2.2719386E0,5.0262465E0,3.0415812E0,5.456769E0,1.5738342E0,1.0349463E0,6.8748055E0,6.861721E0,8.585222E1,3.8520725E1,4.109744E0,1.7344952E0,1.0718532E0,1.4420824E0,2.4495082E0,7.5374365E0,3.318455E0,1.3245791E0,9.328694E0,1.542265E0,1.9807196E0,2.0277958E0,2.4267595E1,1.8341217E0,3.610391E1,2.0957217E2,3.1871016E0,1.0402239E1,2.2857382E0,1.0065465E0,1.2453104E0,1.1073431E0,7.3745337E0,1.0545665E0],"tree_param":{"num_deleted":"0","num_feature":"69","num_nodes":"111","size_leaf_vector":"0"}},{"base_weights":[-3.2727844E-1,-1.8555974E-3,-6.471911E-1,3.457671E-1,-2.8225592E-1,-9.7400916E-1,-5.170061E-1,8.5855806E-1,2.027897E-1,-4.7096536E-1,7.325153E-2,-1.0016998E0,-2.0257203E-2,-3.846106E-3,-6.378489E-1,9.757574E-1,-1.1772273E-1,6.7521363E-1,-1.8351583E-4,-8.2295644E-1,-2.176422E-1,2.9681903E-1,-7.3998225E-1,-1.0205897E0,4.2571966E-2,7.781831E-1,-7.2194487E-1,2.3405868E-1,-4.688051E-1,-6.940047E-1,3.470643E-1,1.0445813E0,1.5316142E-1,4.772326E-1,-7.1728116E-1,-4.5957258E-1,8.921826E-1,-1.7582329E-1,7.4753886E-1,-9.656332E-1,-1.865972E-2,-3.744897E-2,-9.0013105E-1,8.234478E-1,-7.1994215E-2,-9.509383E-1,5.115943E-1,-1.0372965E0,5.896238E-2,-1.3644432E-1,8.7424016E-1,2.5442767E-1,-9.9265474E-1,8.2885176E-1,-7.205329E-1,-5.751036E-1,8.5371494E-1,1.1437917E0,4.5365018E-1,3.5324556E-1,-1.18772775E-1,5.089522E-1,-1.0315841E0,1.0698397E0,7.2922364E-2,-7.905725E-1,3.3846322E-2,8.628208E-1,-2.5553104E-1,-1.0264392E0,3.505281E-1,8.900792E-1,-8.051649E-1,8.587747E-1,-1.9689713E-1,-1.0583895E0,-6.041307E-2,1.0034646E0,-3.906522E-1,4.4337526E-1,-5.558938E-1,-6.2236212E-2,-1.2349687E0,-1.05581E0,-1.0688663E-1,1.0886248E0,-3.7394685E-1,-5.017012E-1,1.3093309E0,-5.2913535E-1,1.1845002E0,-1.25239E-1,-1.1071966E0,1.5725722E0,-2.4891649E-1,-1.3456209E-1,-7.914726E-1,6.685997E-2,-8.15919E-1,-2.9828197E-1,1.2522794E0],"categories":[],"categories_nodes":[],"categories_segments":[],"categories_sizes":[],"default_left":[true,true,true,true,true,true,true,true,true,true,true,true,true,true,true,true,true,true,true,true,true,true,true,true,false,false,false,true,true,true,true,true,true,false,false,true,true,true,true,true,true,true,true,true,true,true,false,true,false,true,true,true,true,true,true,true,true,false,false,false,false,false,false,false,false,false,false,false,false,false,false,false,false,false,false,false,false,false,false,false,false,false,false,false,false,false,false,false,false,false,false,false,false,false,false,false,false,false,false,false,false],"id":5,"left_children":[1,3,5,7,9,11,13,15,17,19,21,23,25,27,29,31,33,35,37,39,41,43,45,47,-1,-1,-1,49,51,53,55,57,59,-1,-1,61,63,65,67,69,71,73,75,77,79,81,-1,83,-1,85,87,89,91,93,95,97,99,-1,-1,-1,-1,-1,-1,-1,-1,-1,-1,-1,-1,-1,-1,-1,-1,-1,-1,-1,-1,-1,-1,-1,-1,-1,-1,-1,-1,-1,-1,-1,-1,-1,-1,-1,-1,-1,-1,-1,-1,-1,-1,-1,-1],"loss_changes":[6.01542E1,2.8116137E1,1.1893532E1,9.268414E0,1.0745596E1,2.141945E0,1.3051239E1,3.2923832E0,9.782627E0,9.132719E0,1.0442527E1,1.612503E0,2.4277887E0,4.659217E0,9.6640625E0,1.249815E0,1.7223568E0,7.958762E0,9.634362E0,4.955963E0,7.6016436E0,8.763954E0,3.7632756E0,1.470993E0,0E0,0E0,0E0,6.730808E0,5.652984E0,7.1223373E0,5.0962124E0,8.18243E-1,2.1032265E-1,0E0,0E0,3.617008E0,3.7176018E0,7.6837006E0,1.8341107E0,3.3044662E0,6.1130433E0,7.3372035E0,1.6536789E0,4.443966E0,7.0490866E0,2.692275E0,0E0,1.2140121E0,0E0,5.795924E0,6.8550515E0,5.5704546E0,7.029352E-1,2.9808936E0,6.514862E0,6.872529E-1,3.479237E0,0E0,0E0,0E0,0E0,0E0,0E0,0E0,0E0,0E0,0E0,0E0,0E0,0E0,0E0,0E0,0E0,0E0,0E0,0E0,0E0,0E0,0E0,0E0,0E0,0E0,0E0,0E0,0E0,0E0,0E0,0E0,0E0,0E0,0E0,0E0,0E0,0E0,0E0,0E0,0E0,0E0,0E0,0E0,0E0],"parents":[2147483647,0,0,1,1,2,2,3,3,4,4,5,5,6,6,7,7,8,8,9,9,10,10,11,11,12,12,13,13,14,14,15,15,16,16,17,17,18,18,19,19,20,20,21,21,22,22,23,23,27,27,28,28,29,29,30,30,31,31,32,32,35,35,36,36,37,37,38,38,39,39,40,40,41,41,42,42,43,43,44,44,45,45,47,47,49,49,50,50,51,51,52,52,53,53,54,54,55,55,56,56],"right_children":[2,4,6,8,10,12,14,16,18,20,22,24,26,28,30,32,34,36,38,40,42,44,46,48,-1,-1,-1,50,52,54,56,58,60,-1,-1,62,64,66,68,70,72,74,76,78,80,82,-1,84,-1,86,88,90,92,94,96,98,100,-1,-1,-1,-1,-1,-1,-1,-1,-1,-1,-1,-1,-1,-1,-1,-1,-1,-1,-1,-1,-1,-1,-1,-1,-1,-1,-1,-1,-1,-1,-1,-1,-1,-1,-1,-1,-1,-1,-1,-1,-1,-1,-1,-1],"split_conditions":[-2.2116628E0,-2.8144653E1,2.2761998E0,-3.644452E1,8.379027E0,4.8815552E2,2.5E0,9.07725E2,7.3075E2,2.302685E0,5.45E1,4.5E1,7.65E1,9.2E1,5E-1,-2.595191E0,1.1498907E1,5.2559998E1,8.886597E0,1.735E2,8.720112E0,-2.3405384E1,1.6645693E1,1.059E3,1.2771591E-2,2.3345494E-1,-2.1658348E-1,5E-1,4.190301E2,1.4005E3,2.295E2,-3.7127563E1,7.719E2,1.4316979E-1,-2.1518436E-1,6.4755E2,1.705E2,7.1255005E1,-2.899472E1,1.61E2,-1.6248028E0,-2.691956E1,4.95E1,4.6271246E2,1.405E2,9.5E0,1.534783E-1,4.05E1,1.7688714E-2,4.05E1,1.55E1,2.8174603E-1,-1.9656765E-1,2.1279761E-1,-3.407492E1,-1.772561E-1,3.0730848E0,3.431375E-1,1.3609506E-1,1.0597367E-1,-3.5631835E-2,1.5268567E-1,-3.0947524E-1,3.2095194E-1,2.187671E-2,-2.3717177E-1,1.0153897E-2,2.5884625E-1,-7.6659314E-2,-3.0793178E-1,1.0515843E-1,2.6702377E-1,-2.4154948E-1,2.5763243E-1,-5.906914E-2,-3.1751686E-1,-1.8123921E-2,3.010394E-1,-1.17195666E-1,1.3301258E-1,-1.6676813E-1,-1.8670864E-2,-3.704906E-1,-3.1674302E-1,-3.206599E-2,3.2658747E-1,-1.12184055E-1,-1.5051036E-1,3.927993E-1,-1.5874061E-1,3.5535008E-1,-3.7571702E-2,-3.3215898E-1,4.717717E-1,-7.467495E-2,-4.0368628E-2,-2.374418E-1,2.0057991E-2,-2.447757E-1,-8.9484595E-2,3.7568384E-1],"split_indices":[8,4,66,4,7,68,13,1,1,66,30,26,15,33,23,8,6,67,7,36,6,4,7,35,0,0,0,25,68,27,35,4,1,0,0,1,36,67,4,55,10,4,52,68,33,34,0,17,0,37,26,63,0,63,4,0,66,0,0,0,0,0,0,0,0,0,0,0,0,0,0,0,0,0,0,0,0,0,0,0,0,0,0,0,0,0,0,0,0,0,0,0,0,0,0,0,0,0,0,0,0],"split_type":[0,0,0,0,0,0,0,0,0,0,0,0,0,0,0,0,0,0,0,0,0,0,0,0,0,0,0,0,0,0,0,0,0,0,0,0,0,0,0,0,0,0,0,0,0,0,0,0,0,0,0,0,0,0,0,0,0,0,0,0,0,0,0,0,0,0,0,0,0,0,0,0,0,0,0,0,0,0,0,0,0,0,0,0,0,0,0,0,0,0,0,0,0,0,0,0,0,0,0,0,0],"sum_hessian":[5.7682336E2,2.8644772E2,2.9037567E2,1.2778937E2,1.5865836E2,8.087196E1,2.0950371E2,2.6770756E1,1.01018616E2,1.0343077E2,5.5227585E1,7.8541374E1,2.3305924E0,4.012868E1,1.6937502E2,2.3901941E1,2.868815E0,2.9659338E1,7.1359276E1,4.2344578E1,6.1086193E1,4.3816837E1,1.14107485E1,7.7168144E1,1.3732295E0,1.0391463E0,1.2914461E0,2.6874472E1,1.3254211E1,1.6051828E2,8.856744E0,2.1807518E1,2.0944233E0,1.5423414E0,1.3264735E0,4.5811195E0,2.5078218E1,5.840485E1,1.2954428E1,3.5794315E1,6.5502615E0,4.9161312E1,1.192488E1,1.7539488E1,2.6277348E1,9.97042E0,1.4403291E0,7.6030655E1,1.137485E0,1.7521072E1,9.353398E0,5.783608E0,7.470603E0,2.2305255E0,1.5828775E2,3.0926404E0,5.764103E0,1.7871527E1,3.9359918E0,1.0343539E0,1.0600696E0,1.7419341E0,2.8391857E0,2.0357763E1,4.7204547E0,1.414914E1,4.4255707E1,1.1744466E1,1.2099618E0,3.4424065E1,1.3702487E0,2.9778843E0,3.5723774E0,6.7628536E0,4.2398457E1,9.814725E0,2.1101549E0,1.5425773E1,2.1137152E0,1.2765452E1,1.3511896E1,2.7100542E0,7.2603655E0,7.441515E1,1.6155025E0,2.263258E0,1.5257814E1,2.2103233E0,7.143075E0,3.3730114E0,2.4105966E0,1.1156056E0,6.3549976E0,1.0481458E0,1.1823796E0,1.7406305E1,1.4088144E2,1.0407033E0,2.051937E0,1.5463102E0,4.217793E0],"tree_param":{"num_deleted":"0","num_feature":"69","num_nodes":"101","size_leaf_vector":"0"}},{"base_weights":[-2.660356E-1,-6.255772E-1,-5.365509E-2,-1.9631965E-1,-7.396848E-1,4.8183078E-1,-1.6028407E-1,1.8441132E-1,-8.9978755E-1,-1.8206704E-1,-8.251358E-1,-2.3705703E-1,6.233567E-1,-4.9053703E-2,-7.4301904E-1,4.493093E-1,-6.848579E-1,-1.0252659E0,3.8334835E-1,-3.1937337E-1,1.2007272E0,-4.8509875E-1,-9.3552226E-1,5.9259236E-1,-7.494068E-1,7.6846105E-1,-3.4359276E-1,-1.4241688E-1,6.855775E-1,-8.00066E-1,5.72077E-1,1.2146817E0,2.1151366E-2,1.1366323E-1,-9.617314E-1,-2.1830744E-1,-1.0750939E0,5.1199675E-1,-5.083348E-1,1.2620268E0,-6.190258E-1,-9.600742E-1,5.0382173E-1,-1.2745167E-1,8.7510365E-1,-1.241406E0,1.5988259E-1,5.713372E-1,1.0863203E0,3.0178377E-1,-9.1460973E-1,-2.5507376E-1,5.622731E-1,-3.4113157E-1,8.7512887E-1,9.923226E-2,-8.7653106E-1,5.7796234E-1,1.9259735E0,-1.9982776E-1,1.29043E0,-6.6091377E-1,1.166029E0,-6.391884E-1,7.9144394E-1,-7.7999455E-1,6.073764E-1,-9.846015E-1,2.2230228E-2,-1.4549035E0,-3.8117424E-1,-4.081648E-1,6.473902E-1,7.8526944E-1,9.876522E-4,2.310165E-1,1.1336539E0,-3.1403556E-1,8.235773E-1,-4.3437007E-1,2.2086328E-1,-2.4421479E-1,9.4503444E-1,-7.559662E-1,2.9823977E-1,1.0154626E0,-3.9164856E-1,-6.1750853E-1,7.048044E-1,-4.8186404E-1,-1.0993891E0],"categories":[],"categories_nodes":[],"categories_segments":[],"categories_sizes":[],"default_left":[true,true,true,true,true,true,true,true,true,true,true,true,true,true,true,true,true,true,false,true,false,true,true,true,true,true,true,true,true,true,false,true,true,false,false,false,false,true,true,false,true,true,false,false,false,true,true,true,true,true,false,true,true,true,true,true,true,false,false,false,false,false,false,false,false,false,false,false,false,false,false,false,false,false,false,false,false,false,false,false,false,false,false,false,false,false,false,false,false,false,false],"id":6,"left_children":[1,3,5,7,9,11,13,15,17,19,21,23,25,27,29,31,33,35,-1,37,-1,39,41,43,45,47,49,51,53,55,-1,57,59,-1,-1,-1,-1,61,63,-1,65,67,-1,-1,-1,69,71,73,75,77,-1,79,81,83,85,87,89,-1,-1,-1,-1,-1,-1,-1,-1,-1,-1,-1,-1,-1,-1,-1,-1,-1,-1,-1,-1,-1,-1,-1,-1,-1,-1,-1,-1,-1,-1,-1,-1,-1,-1],"loss_changes":[3.9571224E1,9.284149E0,1.8757101E1,1.1358205E1,7.0790787E0,5.700433E0,1.7696182E1,6.742256E0,2.7831087E0,4.4549174E0,4.4737015E0,4.5679226E0,6.7006626E0,1.5927473E1,3.7420826E0,7.1905985E0,1.6398594E0,3.1996155E-1,0E0,3.4488058E0,0E0,8.795116E0,3.9478607E0,9.785688E-1,3.0791976E0,1.8980484E0,2.7365985E0,1.6465738E1,5.3967094E0,3.0009365E0,0E0,2.4565315E0,4.5041356E0,0E0,0E0,0E0,0E0,4.03633E0,3.4039855E0,0E0,6.886034E0,2.3523636E0,0E0,0E0,0E0,2.3377466E-1,1.1356633E0,3.2839565E0,3.1612206E-1,1.5074123E0,0E0,1.5281141E1,9.075017E0,1.4991528E0,4.3787537E0,2.2664473E0,2.9142475E0,0E0,0E0,0E0,0E0,0E0,0E0,0E0,0E0,0E0,0E0,0E0,0E0,0E0,0E0,0E0,0E0,0E0,0E0,0E0,0E0,0E0,0E0,0E0,0E0,0E0,0E0,0E0,0E0,0E0,0E0,0E0,0E0,0E0,0E0],"parents":[2147483647,0,0,1,1,2,2,3,3,4,4,5,5,6,6,7,7,8,8,9,9,10,10,11,11,12,12,13,13,14,14,15,15,16,16,17,17,19,19,21,21,22,22,23,23,24,24,25,25,26,26,27,27,28,28,29,29,31,31,32,32,37,37,38,38,40,40,41,41,45,45,46,46,47,47,48,48,49,49,51,51,52,52,53,53,54,54,55,55,56,56],"right_children":[2,4,6,8,10,12,14,16,18,20,22,24,26,28,30,32,34,36,-1,38,-1,40,42,44,46,48,50,52,54,56,-1,58,60,-1,-1,-1,-1,62,64,-1,66,68,-1,-1,-1,70,72,74,76,78,-1,80,82,84,86,88,90,-1,-1,-1,-1,-1,-1,-1,-1,-1,-1,-1,-1,-1,-1,-1,-1,-1,-1,-1,-1,-1,-1,-1,-1,-1,-1,-1,-1,-1,-1,-1,-1,-1,-1],"split_conditions":[5E-1,-3.304607E1,-3.402291E1,-5.487815E-1,1.055E2,-2.2704807E-1,9.830271E0,1.235243E1,-2.3613283E1,3.85E1,-2.5041697E1,1.25E1,1.4060783E1,4.55E1,2.665E2,-3.81136E4,5.5E0,1.355E2,1.1500451E-1,1.7156863E-1,3.6021817E-1,6.0661763E-2,1.6011572E5,1.1024959E0,2.5E0,9.85E1,-4.1523735E1,5E-1,6.0225E1,8.514493E-2,1.716231E-1,-5.0325387E4,5.833334E-1,3.4098968E-2,-2.885194E-1,-6.5492235E-2,-3.2252818E-1,2.84895E0,4.95E1,3.7860805E-1,4.35E1,6.7543864E-1,1.5114653E-1,-3.8235504E-2,2.625311E-1,2.47E2,3.6421883E0,3.165E2,3.4508734E2,4.4005E3,-2.7438292E-1,1.1291352E1,7.55E1,-2.3555958E0,2.375E2,2.74E2,-3.013918E1,1.733887E-1,5.777921E-1,-5.994833E-2,3.87129E-1,-1.9827414E-1,3.498087E-1,-1.9175653E-1,2.374332E-1,-2.3399837E-1,1.8221292E-1,-2.9538047E-1,6.6690687E-3,-4.3647107E-1,-1.1435228E-1,-1.2244944E-1,1.9421707E-1,2.3558085E-1,2.9629568E-4,6.930495E-2,3.4009618E-1,-9.421068E-2,2.4707319E-1,-1.3031103E-1,6.625899E-2,-7.326444E-2,2.8351036E-1,-2.2678986E-1,8.9471936E-2,3.046388E-1,-1.17494576E-1,-1.8525256E-1,2.1144134E-1,-1.4455922E-1,-3.2981673E-1],"split_indices":[12,5,4,8,31,0,6,6,4,18,4,14,6,52,37,24,13,35,0,63,0,63,24,7,12,36,5,23,67,63,0,24,63,0,0,0,0,66,52,0,49,63,0,0,0,15,7,35,68,27,0,11,36,8,32,35,4,0,0,0,0,0,0,0,0,0,0,0,0,0,0,0,0,0,0,0,0,0,0,0,0,0,0,0,0,0,0,0,0,0,0],"split_type":[0,0,0,0,0,0,0,0,0,0,0,0,0,0,0,0,0,0,0,0,0,0,0,0,0,0,0,0,0,0,0,0,0,0,0,0,0,0,0,0,0,0,0,0,0,0,0,0,0,0,0,0,0,0,0,0,0,0,0,0,0,0,0,0,0,0,0,0,0,0,0,0,0,0,0,0,0,0,0,0,0,0,0,0,0,0,0,0,0,0,0],"sum_hessian":[5.176613E2,1.9150851E2,3.2615277E2,4.0788406E1,1.5072011E2,5.3576298E1,2.7257648E2,2.6943758E1,1.384465E1,2.0443693E1,1.3027641E2,8.701515E0,4.4874783E1,2.2979768E2,4.2778786E1,2.102101E1,5.922748E0,1.2794444E1,1.0502055E0,1.9296646E1,1.1470475E0,3.324923E1,9.702719E1,3.26228E0,5.4392357E0,3.9197865E1,5.6769176E0,2.0460135E2,2.5196337E1,4.1375603E1,1.4031851E0,6.8819265E0,1.4139084E1,1.6766515E0,4.2460966E0,1.0570391E0,1.1737406E1,3.2570655E0,1.6039581E1,1.7675598E0,3.1481668E1,9.572728E1,1.2999141E0,1.0739462E0,2.1883337E0,3.2924857E0,2.1467497E0,2.5920465E1,1.32774E1,2.886278E0,2.7906399E0,1.7695074E2,2.7650604E1,3.8021615E0,2.1394175E1,3.2190397E0,3.8156563E1,4.5877304E0,2.294196E0,1.2760134E1,1.3789504E0,1.1622392E0,2.0948265E0,1.5034259E1,1.005322E0,2.8150797E1,3.3308723E0,9.3393E1,2.334281E0,2.083979E0,1.2085071E0,1.0666423E0,1.0801075E0,1.8575985E1,7.3444805E0,1.0046309E0,1.2272769E1,1.5064871E0,1.3797908E0,1.2859386E2,4.835689E1,9.015882E0,1.8634724E1,2.1953948E0,1.6067667E0,1.9439098E1,1.9550767E0,1.4651784E0,1.7538612E0,1.4911489E1,2.3245073E1],"tree_param":{"num_deleted":"0","num_feature":"69","num_nodes":"91","size_leaf_vector":"0"}},{"base_weights":[-2.111584E-1,5.5145025E-2,-4.3785554E-1,4.6440655E-1,-1.388663E-1,3.086246E-1,-5.01001E-1,8.216457E-1,-1.1687148E-2,1.21091455E-1,-4.3312207E-1,5.0583595E-1,-5.563559E-1,1.3180453E-1,-5.6942374E-1,9.8362565E-2,1.0739354E0,-4.2855966E-1,4.0850887E-1,7.6797605E-1,-2.0884909E-2,-5.9994E-1,1.2139553E-2,8.4794056E-1,-1.865498E-2,-9.7671527E-1,3.274298E-1,-1.723985E-1,9.124048E-1,-6.406688E-1,-1.9449325E-2,-7.1626854E-1,6.489864E-1,1.2140254E0,-8.309072E-2,8.041649E-1,-7.28188E-1,-7.8330174E-2,1.0299842E0,9.479559E-1,-2.3098926E-1,-5.0423145E-1,1.4792408E-1,-7.1685815E-1,2.676925E-2,3.1676227E-1,-7.380033E-1,1.0885751E0,5.858451E-2,4.7996306E-1,-5.149454E-1,-4.2806798E-1,7.059247E-1,-4.6983752E-2,1.8147248E0,-6.639928E-1,1.0732999E0,-9.06138E-1,3.1127256E-1,-9.1039854E-1,7.367864E-3,9.1921043E-1,-3.7663836E-2,2.554408E-1,1.3167115E0,4.937341E-1,-7.288497E-1,1.1917757E0,3.3991616E-2,3.5342398E-1,-9.632868E-1,8.3075863E-1,-4.7126204E-1,1.2619815E0,-1.1229049E-1,-7.091241E-2,1.0436565E0,-4.7819188E-1,1.3134791E-1,-2.2226608E-1,-1.1447629E0,-2.8548378E-1,5.074455E-1,1.4347482E-1,-7.967191E-1,5.976927E-1,-7.5262016E-1,5.8850604E-1,-7.8923607E-1,-9.143424E-1,-3.207623E-2,1.3929737E0,3.3634844E-1,4.7342232E-1,-4.4067067E-1,-3.9049804E-2,7.05928E-1,2.1700057E-1,-9.0653807E-1,1.7048794E-1,-7.624517E-1,1.5062004E0,-1.7545398E-1,-7.8471476E-1,8.8670784E-1,-7.379921E-1,-1.6590954E-1,-1.0748082E0,6.6783324E-2,-4.0885308E-1,7.021359E-1],"categories":[],"categories_nodes":[],"categories_segments":[],"categories_sizes":[],"default_left":[true,true,true,true,true,true,true,true,true,true,true,true,true,true,true,true,true,true,true,true,true,true,true,true,true,false,false,true,true,true,true,true,true,true,true,true,true,true,true,true,true,true,true,true,true,true,true,true,true,true,true,true,true,true,false,true,false,true,true,false,false,false,false,false,false,false,false,false,false,false,false,false,false,false,false,false,false,false,false,false,false,false,false,false,false,false,false,false,false,false,false,false,false,false,false,false,false,false,false,false,false,false,false,false,false,false,false,false,false,false,false],"id":7,"left_children":[1,3,5,7,9,11,13,15,17,19,21,23,25,27,29,31,33,35,37,39,41,43,45,47,49,-1,-1,51,53,55,57,59,61,63,65,67,69,71,73,75,77,79,81,83,85,87,89,91,93,95,97,99,101,103,-1,105,-1,107,109,-1,-1,-1,-1,-1,-1,-1,-1,-1,-1,-1,-1,-1,-1,-1,-1,-1,-1,-1,-1,-1,-1,-1,-1,-1,-1,-1,-1,-1,-1,-1,-1,-1,-1,-1,-1,-1,-1,-1,-1,-1,-1,-1,-1,-1,-1,-1,-1,-1,-1,-1,-1],"loss_changes":[2.8607306E1,1.7421791E1,1.2215164E1,1.2005661E1,1.1455407E1,3.7910857E0,1.0305923E1,7.249998E0,5.6442065E0,7.3569126E0,5.2171736E0,3.1160645E0,1.915859E0,5.825012E0,8.349976E0,5.634561E0,4.928608E0,6.5548363E0,4.9400997E0,2.8101234E0,5.5019474E0,3.759388E0,4.826042E0,1.9266472E0,2.1771832E0,0E0,0E0,4.3478537E0,6.0169024E0,8.264755E0,7.762084E0,7.264731E-1,1.4079866E0,2.2851334E0,1.9067045E0,1.0447168E0,3.7798772E0,3.9405332E0,2.030047E0,1.2838287E0,3.318984E-1,2.8961992E0,7.947152E0,3.072466E0,4.4499187E0,4.9703536E0,7.3055243E-1,1.357295E0,9.345503E-1,5.4454803E-1,1.4553542E0,3.0474558E0,3.3955507E0,3.65479E0,0E0,6.7697525E0,0E0,1.2508707E0,5.725787E0,0E0,0E0,0E0,0E0,0E0,0E0,0E0,0E0,0E0,0E0,0E0,0E0,0E0,0E0,0E0,0E0,0E0,0E0,0E0,0E0,0E0,0E0,0E0,0E0,0E0,0E0,0E0,0E0,0E0,0E0,0E0,0E0,0E0,0E0,0E0,0E0,0E0,0E0,0E0,0E0,0E0,0E0,0E0,0E0,0E0,0E0,0E0,0E0,0E0,0E0,0E0,0E0],"parents":[2147483647,0,0,1,1,2,2,3,3,4,4,5,5,6,6,7,7,8,8,9,9,10,10,11,11,12,12,13,13,14,14,15,15,16,16,17,17,18,18,19,19,20,20,21,21,22,22,23,23,24,24,27,27,28,28,29,29,30,30,31,31,32,32,33,33,34,34,35,35,36,36,37,37,38,38,39,39,40,40,41,41,42,42,43,43,44,44,45,45,46,46,47,47,48,48,49,49,50,50,51,51,52,52,53,53,55,55,57,57,58,58],"right_children":[2,4,6,8,10,12,14,16,18,20,22,24,26,28,30,32,34,36,38,40,42,44,46,48,50,-1,-1,52,54,56,58,60,62,64,66,68,70,72,74,76,78,80,82,84,86,88,90,92,94,96,98,100,102,104,-1,106,-1,108,110,-1,-1,-1,-1,-1,-1,-1,-1,-1,-1,-1,-1,-1,-1,-1,-1,-1,-1,-1,-1,-1,-1,-1,-1,-1,-1,-1,-1,-1,-1,-1,-1,-1,-1,-1,-1,-1,-1,-1,-1,-1,-1,-1,-1,-1,-1,-1,-1,-1,-1,-1,-1],"split_conditions":[-2.6495771E1,7.6586666E0,-2.2593746E0,5.5E0,-2.4591603E0,2.35E1,5.5E0,2.3124099E0,8.753999E1,-3.7141163E1,1.465E2,6.16698E-1,1.04E2,1.0170372E1,5E-1,3.5E0,4.6744653E2,2.0699704E0,1.0555531E1,9.07725E2,7.061E1,2.3E2,4.5893582E2,-2.154525E1,-6.900183E4,-2.930146E-1,9.822895E-2,1.18E2,7.4139497E3,1.286E3,1.81883E0,-1.4411628E-1,-2.8678059E1,3.65E1,5E0,-2.8930164E1,-2.3757231E-1,3.5E0,1.87E2,-5.8401594E0,3.345E2,4.65E1,2.6328201E0,4.85E1,-3.393431E1,-2.2562188E-1,3.77E2,6.0099077E0,2.5434046E0,-2.5842701E1,1E0,4.8386E2,-2.7762976E0,1.95E1,5.4441744E-1,1.770532E1,3.2198998E-1,-6.8068966E-2,2.295E2,-2.7311957E-1,2.2103593E-3,2.7576315E-1,-1.1299151E-2,7.663225E-2,3.9501348E-1,1.4812024E-1,-2.1865492E-1,3.575327E-1,1.0197485E-2,1.060272E-1,-2.8898606E-1,2.492276E-1,-1.4137861E-1,3.7859446E-1,-3.368715E-2,-2.1273725E-2,3.1309694E-1,-1.4345758E-1,3.9404374E-2,-6.667983E-2,-3.4342888E-1,-8.564514E-2,1.5223366E-1,4.3042447E-2,-2.3901573E-1,1.7930782E-1,-2.2578606E-1,1.7655182E-1,-2.3677082E-1,-2.7430272E-1,-9.622869E-3,4.1789213E-1,1.0090454E-1,1.4202671E-1,-1.3220121E-1,-1.1714942E-2,2.1177842E-1,6.510018E-2,-2.7196142E-1,5.1146384E-2,-2.2873552E-1,4.5186016E-1,-5.2636195E-2,-2.3541443E-1,2.6601237E-1,-2.2139764E-1,-4.9772866E-2,-3.2244247E-1,2.0034999E-2,-1.2265593E-1,2.1064079E-1],"split_indices":[4,6,10,13,8,18,16,66,67,4,37,2,49,11,23,38,68,11,11,1,67,39,68,5,24,0,0,36,24,31,66,0,4,32,17,4,0,34,51,7,35,30,66,32,5,8,14,6,6,5,18,1,8,26,0,11,0,0,35,0,0,0,0,0,0,0,0,0,0,0,0,0,0,0,0,0,0,0,0,0,0,0,0,0,0,0,0,0,0,0,0,0,0,0,0,0,0,0,0,0,0,0,0,0,0,0,0,0,0,0,0],"split_type":[0,0,0,0,0,0,0,0,0,0,0,0,0,0,0,0,0,0,0,0,0,0,0,0,0,0,0,0,0,0,0,0,0,0,0,0,0,0,0,0,0,0,0,0,0,0,0,0,0,0,0,0,0,0,0,0,0,0,0,0,0,0,0,0,0,0,0,0,0,0,0,0,0,0,0,0,0,0,0,0,0,0,0,0,0,0,0,0,0,0,0,0,0,0,0,0,0,0,0,0,0,0,0,0,0,0,0,0,0,0,0],"sum_hessian":[4.724645E2,2.17602E2,2.548625E2,6.953215E1,1.4806985E2,1.9574385E1,2.3528813E2,3.9309944E1,3.0222204E1,7.892909E1,6.914076E1,1.6278233E1,3.2961528E0,2.2867989E1,2.1242014E2,1.05252495E1,2.8784695E1,1.5161108E1,1.5061097E1,1.3411826E1,6.551727E1,5.0044224E1,1.9096535E1,9.478857E0,6.7993746E0,2.1624613E0,1.1336915E0,1.7015951E1,5.852037E0,1.8791257E2,2.450757E1,4.123632E0,6.401618E0,2.5631971E1,3.1527224E0,2.635268E0,1.252584E1,8.935412E0,6.1256843E0,1.1407619E1,2.0042064E0,1.6444668E1,4.90726E1,4.2054703E1,7.989522E0,1.3992218E1,5.1043167E0,6.9738255E0,2.505032E0,3.4081445E0,3.39123E0,1.3576595E1,3.4393559E0,3.295761E0,2.556276E0,1.8599413E2,1.9184467E0,6.185074E0,1.8322496E1,3.0478866E0,1.0757451E0,4.350741E0,2.0508769E0,2.8175428E0,2.2814428E1,1.78959E0,1.3631324E0,1.388869E0,1.2463988E0,2.146626E0,1.0379213E1,2.360317E0,6.575095E0,5.0044737E0,1.1212107E0,1.001736E0,1.0405884E1,1.001319E0,1.0028875E0,1.2353565E1,4.091103E0,2.2343342E1,2.672926E1,3.504502E0,3.85502E1,4.746045E0,3.2434769E0,1.1608023E1,2.3841949E0,3.8478866E0,1.2564303E0,4.3583574E0,2.6154675E0,1.3964478E0,1.1085843E0,1.2846509E0,2.1234934E0,1.3373575E0,2.0538723E0,5.0417924E0,8.534802E0,1.4310627E0,2.0082932E0,1.9302127E0,1.3655483E0,1.6151628E2,2.4477839E1,5.1819787E0,1.003095E0,6.429949E0,1.1892548E1],"tree_param":{"num_deleted":"0","num_feature":"69","num_nodes":"111","size_leaf_vector":"0"}},{"base_weights":[-1.6638938E-1,2.2263328E-2,-4.1910267E-1,-8.456196E-1,7.6901115E-2,-8.2548183E-1,-2.8399244E-1,2.8934807E-1,-1.0000426E0,2.1912888E-1,-2.7625442E-1,-2.2286946E-1,-9.1961414E-1,2.5422448E-1,-4.161897E-1,-1.0945977E0,1.2875914E-2,3.583688E-1,-2.2382784E-1,-3.8527724E-1,4.471972E-1,8.999794E-1,-6.8755484E-1,-1.3434619E-1,-9.85206E-1,-3.51452E-1,6.296136E-1,-1.523175E-1,-7.308623E-1,4.2824206E-1,-4.1318658E-1,-5.598093E-1,1.7707795E-1,-5.965284E-1,1.98584E-2,7.2467977E-1,-2.9059222E-1,1.691404E-1,-9.106919E-1,-7.474332E-1,8.880904E-1,-1.0111638E0,-4.866023E-2,-9.048236E-1,4.1717213E-1,2.3560064E-1,1.7115692E0,3.3304265E-1,-4.978634E-1,-8.342158E-1,1.2621656E-1,1.568872E-1,6.927021E-1,6.4122087E-1,-7.345506E-1,-8.1037575E-1,4.3107063E-1,6.625077E-1,-2.5137946E-1,-9.448499E-1,-2.8388423E-1,9.4432384E-1,-1.5266684E-1,6.8727015E-3,1.0923257E0,2.7395475E-1,-6.706114E-1,-1.0355277E0,-3.3573186E-1,-2.0224285E-1,-9.916846E-1,1.0848354E0,-2.7071422E-1,-3.0077952E-1,1.0281225E0,8.052882E-1,-1.9186845E-1,-6.2950605E-1,5.953634E-1,-8.807679E-1,6.0279745E-1,-7.563042E-1,1.29916E0],"categories":[],"categories_nodes":[],"categories_segments":[],"categories_sizes":[],"default_left":[true,true,true,true,true,true,true,false,true,true,true,true,true,true,true,false,false,true,true,true,true,false,true,true,true,true,true,true,true,true,true,true,true,true,true,true,true,false,false,false,false,true,false,true,true,true,false,true,true,true,true,false,false,false,false,false,false,false,false,false,false,false,false,false,false,false,false,false,false,false,false,false,false,false,false,false,false,false,false,false,false,false,false],"id":8,"left_children":[1,3,5,7,9,11,13,-1,15,17,19,21,23,25,27,-1,-1,29,31,33,35,-1,37,39,41,43,45,47,49,51,53,55,57,59,61,63,65,-1,-1,-1,-1,67,-1,69,71,73,-1,75,77,79,81,-1,-1,-1,-1,-1,-1,-1,-1,-1,-1,-1,-1,-1,-1,-1,-1,-1,-1,-1,-1,-1,-1,-1,-1,-1,-1,-1,-1,-1,-1,-1,-1],"loss_changes":[2.0612692E1,1.1843634E1,9.910511E0,2.8823795E0,1.1844061E1,2.380495E0,1.0080497E1,0E0,1.2828817E0,1.0429734E1,5.5196342E0,4.5204105E0,1.8816109E0,6.647657E0,9.265318E0,0E0,0E0,7.0804653E0,5.58768E0,5.100355E0,2.1230478E0,0E0,1.2734284E0,3.279056E0,8.2424927E-1,5.2504387E0,7.188333E0,1.0678846E1,4.644409E0,8.352924E0,4.2466946E0,5.9130774E0,4.1886463E0,3.9909582E0,3.548498E0,1.8595068E0,8.846015E-1,0E0,0E0,0E0,0E0,2.2680664E-1,0E0,2.2520351E-1,2.8105674E0,6.351364E0,0E0,6.765021E0,5.7020645E0,3.5987148E0,7.5896974E0,0E0,0E0,0E0,0E0,0E0,0E0,0E0,0E0,0E0,0E0,0E0,0E0,0E0,0E0,0E0,0E0,0E0,0E0,0E0,0E0,0E0,0E0,0E0,0E0,0E0,0E0,0E0,0E0,0E0,0E0,0E0,0E0],"parents":[2147483647,0,0,1,1,2,2,3,3,4,4,5,5,6,6,8,8,9,9,10,10,11,11,12,12,13,13,14,14,17,17,18,18,19,19,20,20,22,22,23,23,24,24,25,25,26,26,27,27,28,28,29,29,30,30,31,31,32,32,33,33,34,34,35,35,36,36,41,41,43,43,44,44,45,45,47,47,48,48,49,49,50,50],"right_children":[2,4,6,8,10,12,14,-1,16,18,20,22,24,26,28,-1,-1,30,32,34,36,-1,38,40,42,44,46,48,50,52,54,56,58,60,62,64,66,-1,-1,-1,-1,68,-1,70,72,74,-1,76,78,80,82,-1,-1,-1,-1,-1,-1,-1,-1,-1,-1,-1,-1,-1,-1,-1,-1,-1,-1,-1,-1,-1,-1,-1,-1,-1,-1,-1,-1,-1,-1,-1,-1],"split_conditions":[-1.9853351E0,8.5725E-1,2.2761998E0,-3.113913E0,7.5E0,-2.851926E1,6.22E2,8.680442E-2,6.5686274E-1,-2.2600616E1,2.1003387E1,4.17E2,1.035E2,6.0254997E1,-2.5781004E1,-3.2837933E-1,3.8627742E-3,8.5645E2,1.5E0,1.325E2,-2.676755E0,2.6999384E-1,7.7482786E0,8.22E1,1.0443709E0,1.15E2,1.125E2,9.037949E0,2.0890617E1,4.5580416E0,-3.9908722E1,7.289657E-1,5E-1,2.8048E0,6.3325E2,6.95E1,-3.264098E1,5.0742123E-2,-2.7320758E-1,-2.2422996E-1,2.6642713E-1,7.6277256E-2,-1.459807E-2,-3.853415E0,-1.835912E1,5E-1,5.1347077E-1,5.5E0,3.9239044E0,5.955E2,4.5E0,4.7066163E-2,2.0781064E-1,1.9236627E-1,-2.2036518E-1,-2.4311273E-1,1.2932119E-1,1.9875233E-1,-7.541384E-2,-2.8345498E-1,-8.516527E-2,2.8329715E-1,-4.5800053E-2,2.0618106E-3,3.2769772E-1,8.218643E-2,-2.0118342E-1,-3.1065834E-1,-1.0071956E-1,-6.0672857E-2,-2.975054E-1,3.2545063E-1,-8.121427E-2,-9.023386E-2,3.0843678E-1,2.4158646E-1,-5.7560537E-2,-1.8885182E-1,1.7860901E-1,-2.6423037E-1,1.8083924E-1,-2.2689126E-1,3.89748E-1],"split_indices":[8,66,66,9,13,4,29,0,63,4,11,31,35,67,4,0,0,1,12,36,8,0,6,67,8,15,14,6,11,7,5,2,18,66,1,16,5,0,0,0,0,0,0,7,5,12,0,18,7,39,64,0,0,0,0,0,0,0,0,0,0,0,0,0,0,0,0,0,0,0,0,0,0,0,0,0,0,0,0,0,0,0,0],"split_type":[0,0,0,0,0,0,0,0,0,0,0,0,0,0,0,0,0,0,0,0,0,0,0,0,0,0,0,0,0,0,0,0,0,0,0,0,0,0,0,0,0,0,0,0,0,0,0,0,0,0,0,0,0,0,0,0,0,0,0,0,0,0,0,0,0,0,0,0,0,0,0,0,0,0,0,0,0,0,0,0,0,0,0],"sum_hessian":[4.3116238E2,2.4739313E2,1.8376924E2,1.3794845E1,2.3359828E2,4.4578403E1,1.3919084E2,1.5474864E0,1.2247358E1,1.6680125E2,6.6797035E1,6.477651E0,3.8100754E1,2.7264671E1,1.1192617E2,1.1127936E1,1.1194227E0,1.2705385E2,3.9747402E1,5.8455368E1,8.341671E0,1.6218711E0,4.85578E0,3.1721287E0,3.4928623E1,1.0456791E1,1.6807882E1,6.168423E1,5.024194E1,1.16911156E2,1.0142691E1,2.1409056E1,1.8338348E1,3.8110744E1,2.0344624E1,6.0747333E0,2.266938E0,1.0534054E0,3.8023746E0,2.1511788E0,1.0209498E0,3.3909107E1,1.019518E0,5.9766774E0,4.480113E0,1.32136545E1,3.594227E0,2.5667446E1,3.6016785E1,4.4859142E1,5.3828006E0,5.848975E1,5.8421406E1,2.1367204E0,8.005971E0,1.7233372E1,4.175683E0,8.341457E0,9.996891E0,1.7070322E1,2.1040422E1,2.4960673E0,1.7848557E1,2.4025633E0,3.67217E0,1.0243266E0,1.2426114E0,3.2213963E1,1.6951417E0,1.0238175E0,4.95286E0,1.9806427E0,2.4994705E0,8.250309E0,4.963345E0,1.323037E1,1.24370775E1,3.252447E1,3.4923105E0,4.3826466E1,1.0326753E0,3.274375E0,2.1084259E0],"tree_param":{"num_deleted":"0","num_feature":"69","num_nodes":"83","size_leaf_vector":"0"}},{"base_weights":[-1.3488868E-1,-6.803113E-2,-7.0850927E-1,-6.5833366E-1,-9.26E-3,-1.9903405E-1,-8.8230026E-1,-8.498106E-1,1.1131915E-1,6.157435E-1,-6.34567E-2,-7.8295165E-1,2.5313804E-1,-9.370646E-1,3.5472253E-1,-9.3127376E-1,2.5100136E-1,1.2625768E0,-8.129414E-1,-3.2628603E-2,8.56837E-1,-1.3564909E-1,4.734129E-1,-2.2430289E-1,-8.643958E-1,-5.993068E-1,9.8435205E-1,-9.830016E-1,1.7864448E-1,-9.842372E-1,1.4770743E-1,3.086867E-1,1.5714105E0,4.7016707E-1,-4.3347052E-1,4.1190177E-2,1.0177118E0,6.8481923E-3,-3.7234104E-1,-6.9800156E-1,5.718856E-1,-7.508639E-1,-7.3435165E-2,1.4465748E0,9.129312E-4,-1.0130223E0,-7.5262114E-2,-7.5574495E-2,-1.0240263E0,-2.1110582E-1,7.753087E-1,1.732571E-1,-7.839407E-1,-4.8528656E-1,6.0336816E-1,1.1428901E0,-2.2104022E-1,1.7709689E-1,-2.9921144E-1,1.2910005E-1,-5.025987E-1,8.2879865E-1,1.1098034E-1,-2.646953E-1,-1.0414656E0],"categories":[],"categories_nodes":[],"categories_segments":[],"categories_sizes":[],"default_left":[true,true,true,true,true,true,true,true,true,true,true,true,true,true,false,true,false,true,false,true,true,true,true,false,false,true,true,true,false,true,false,false,false,true,true,true,true,true,true,false,true,false,false,false,false,true,false,false,false,false,false,false,false,false,false,false,false,false,false,false,false,false,false,false,false],"id":9,"left_children":[1,3,5,7,9,11,13,15,17,19,21,23,25,27,-1,29,-1,31,-1,33,35,37,39,-1,-1,41,43,45,-1,47,-1,-1,-1,49,51,53,55,57,59,-1,61,-1,-1,-1,-1,63,-1,-1,-1,-1,-1,-1,-1,-1,-1,-1,-1,-1,-1,-1,-1,-1,-1,-1,-1],"loss_changes":[1.531447E1,1.247888E1,3.5174274E0,4.8945885E0,1.1159688E1,3.3402195E0,2.4195538E0,2.5830631E0,8.871689E0,4.1376038E0,1.1808315E1,5.3527355E-2,5.2413726E0,1.7017784E0,0E0,1.5514717E0,0E0,5.975504E-1,0E0,1.8341539E0,2.4775572E0,9.037356E0,4.567874E0,0E0,0E0,2.6900864E-1,1.9966168E0,7.073288E-1,0E0,7.7529526E-1,0E0,0E0,0E0,1.0093573E0,1.2035632E0,1.5374875E0,2.7329597E0,8.816721E0,6.6411657E0,0E0,3.9205627E0,0E0,0E0,0E0,0E0,3.1505013E-1,0E0,0E0,0E0,0E0,0E0,0E0,0E0,0E0,0E0,0E0,0E0,0E0,0E0,0E0,0E0,0E0,0E0,0E0,0E0],"parents":[2147483647,0,0,1,1,2,2,3,3,4,4,5,5,6,6,7,7,8,8,9,9,10,10,11,11,12,12,13,13,15,15,17,17,19,19,20,20,21,21,22,22,25,25,26,26,27,27,29,29,33,33,34,34,35,35,36,36,37,37,38,38,40,40,45,45],"right_children":[2,4,6,8,10,12,14,16,18,20,22,24,26,28,-1,30,-1,32,-1,34,36,38,40,-1,-1,42,44,46,-1,48,-1,-1,-1,50,52,54,56,58,60,-1,62,-1,-1,-1,-1,64,-1,-1,-1,-1,-1,-1,-1,-1,-1,-1,-1,-1,-1,-1,-1,-1,-1,-1,-1],"split_conditions":[-2.539287E-1,1.3464E0,2.05E1,-6.2160563E-2,6.0661763E-2,2.96662E0,1.69E2,7.5E0,-1.8938E1,2.05E1,5E-1,4.7315664E0,6.333E1,1.7073603E0,1.0641676E-1,4.5E0,7.530041E-2,8.3930004E-1,-2.4388242E-1,6.832441E-1,2.8113E0,6.5E0,2.5E0,-6.729087E-2,-2.5931874E-1,2.94E2,-1.6654205E1,8.90486E0,5.3593345E-2,-4.108243E0,4.431223E-2,9.2606016E-2,4.7142318E-1,3.9E1,3.5E0,5.386963E0,4.5E1,-2.6209385E1,2.5E0,-2.0940048E-1,-2.8536984E4,-2.2525918E-1,-2.2030551E-2,4.3397245E-1,2.7387938E-4,-3.94365E-1,-2.2578634E-2,-2.267235E-2,-3.0720788E-1,-6.333175E-2,2.3259263E-1,5.197713E-2,-2.3518221E-1,-1.4558597E-1,1.8101045E-1,3.4286705E-1,-6.631207E-2,5.312907E-2,-8.976343E-2,3.8730018E-2,-1.5077962E-1,2.486396E-1,3.3294104E-2,-7.9408586E-2,-3.124397E-1],"split_indices":[8,66,16,0,63,66,55,64,4,26,23,6,67,8,0,12,0,66,0,2,66,13,64,0,0,31,4,7,0,9,0,0,0,36,14,11,18,5,19,0,24,0,0,0,0,10,0,0,0,0,0,0,0,0,0,0,0,0,0,0,0,0,0,0,0],"split_type":[0,0,0,0,0,0,0,0,0,0,0,0,0,0,0,0,0,0,0,0,0,0,0,0,0,0,0,0,0,0,0,0,0,0,0,0,0,0,0,0,0,0,0,0,0,0,0,0,0,0,0,0,0,0,0,0,0,0,0,0,0,0,0,0,0],"sum_hessian":[3.9958212E2,3.588728E2,4.0709324E1,3.1570835E1,3.2730197E2,1.09002E1,2.9809124E1,2.5197872E1,6.3729625E0,2.5290243E1,3.0201172E2,4.437827E0,6.4623733E0,2.8777592E1,1.0315315E0,2.3605043E1,1.5928279E0,2.674976E0,3.6979866E0,7.0894E0,1.8200844E1,2.668729E2,3.5138832E1,1.0423206E0,3.3955064E0,3.0671284E0,3.395245E0,2.775383E1,1.0237622E0,2.258427E1,1.0207746E0,1.1432772E0,1.531699E0,3.0680478E0,4.021352E0,3.205378E0,1.4995466E1,1.6718964E2,9.968326E1,2.2527082E0,3.2886124E1,2.0488114E0,1.018317E0,1.9893178E0,1.4059272E0,2.675307E1,1.000759E0,1.0690794E0,2.151519E1,1.0444139E0,2.023634E0,1.6575224E0,2.3638294E0,1.7258773E0,1.4795008E0,1.3689501E1,1.3059652E0,1.07701164E2,5.948847E1,2.0556736E1,7.912652E1,2.0603394E1,1.228273E1,1.3570114E0,2.5396059E1],"tree_param":{"num_deleted":"0","num_feature":"69","num_nodes":"65","size_leaf_vector":"0"}},{"base_weights":[-1.0606505E-1,-5.1999085E-2,-6.386477E-1,5.046558E-1,-9.742164E-2,-3.0729008E-1,-9.2441815E-1,9.481384E-1,1.2391496E-1,-3.0433942E-2,-6.539143E-1,-8.198767E-1,1.4361793E-1,-4.2667408E-2,-9.746757E-1,1.0886155E0,6.805958E-2,7.794229E-1,-8.838211E-2,3.7000653E-1,-1.1275816E-1,-9.0731287E-1,-1.503624E-1,-1.3006876E-1,-9.215621E-1,-4.0118232E-1,6.276956E-1,-1.0012673E0,-2.8062028E-1,2.8661317E-1,1.154126E0,4.6584725E-1,-4.4267255E-1,5.12884E-1,-2.5918338E-1,-1.7875743E-3,-4.276441E-1,-9.749156E-1,2.4153056E-2,7.7505165E-1,-6.0768014E-1,4.9687812E-1,-7.4515355E-1,1.0992056E0,-4.6578833E-1,-2.0071736E-1,7.0817196E-1,-7.703553E-1,9.521691E-2,-3.1059432E-1,5.99381E-1,4.5884228E-1,-6.51507E-1,-4.2088342E-1,1.1954632E-1,3.343316E-2,-6.2839735E-1,-1.0327394E0,6.077607E-3,1.1552224E0,-2.786459E-1,1.2951323E-1,-8.7849826E-1,1.5109981E0,2.4062267E-1],"categories":[],"categories_nodes":[],"categories_segments":[],"categories_sizes":[],"default_left":[true,true,true,true,true,true,true,true,true,true,true,true,true,false,true,true,false,false,true,true,true,true,true,false,false,true,true,false,false,false,false,true,true,true,true,true,true,true,false,true,true,false,false,true,false,false,false,false,false,false,false,false,false,false,false,false,false,false,false,false,false,false,false,false,false],"id":10,"left_children":[1,3,5,7,9,11,13,15,17,19,21,23,25,-1,27,29,-1,-1,31,33,35,37,39,-1,-1,41,43,-1,-1,-1,-1,45,47,49,51,53,55,57,-1,59,61,-1,-1,63,-1,-1,-1,-1,-1,-1,-1,-1,-1,-1,-1,-1,-1,-1,-1,-1,-1,-1,-1,-1,-1],"loss_changes":[1.0869574E1,8.768153E0,3.0118952E0,4.3025575E0,1.1896277E1,4.1892977E0,7.6454926E-1,1.4022903E0,2.1890533E0,9.481859E0,4.2396564E0,4.6885872E-1,2.9478161E0,0E0,3.5812378E-2,2.0676517E-1,0E0,0E0,2.642288E0,4.543786E0,8.325985E0,1.4476719E0,5.8370476E0,0E0,0E0,2.0444574E0,3.5039325E0,0E0,0E0,0E0,0E0,1.002303E0,1.4976866E0,3.0581865E0,3.0438924E0,9.061209E0,5.7683353E0,1.2037258E0,0E0,2.1778188E0,1.9198606E0,0E0,0E0,1.1751871E0,0E0,0E0,0E0,0E0,0E0,0E0,0E0,0E0,0E0,0E0,0E0,0E0,0E0,0E0,0E0,0E0,0E0,0E0,0E0,0E0,0E0],"parents":[2147483647,0,0,1,1,2,2,3,3,4,4,5,5,6,6,7,7,8,8,9,9,10,10,11,11,12,12,14,14,15,15,18,18,19,19,20,20,21,21,22,22,25,25,26,26,31,31,32,32,33,33,34,34,35,35,36,36,37,37,39,39,40,40,43,43],"right_children":[2,4,6,8,10,12,14,16,18,20,22,24,26,-1,28,30,-1,-1,32,34,36,38,40,-1,-1,42,44,-1,-1,-1,-1,46,48,50,52,54,56,58,-1,60,62,-1,-1,64,-1,-1,-1,-1,-1,-1,-1,-1,-1,-1,-1,-1,-1,-1,-1,-1,-1,-1,-1,-1,-1],"split_conditions":[-2.539287E-1,-3.644452E1,6.985E2,3.6305E3,1.0998541E1,2.88865E0,1.2197499E0,2.1E2,-4.3360016E1,-3.376928E1,3.53966E0,-3.1782767E-1,1.85E1,-1.2800223E-2,1.0355E3,1.0818714E-1,2.0417875E-2,2.3382688E-1,1.037331E1,4.5708258E2,7.91722E0,1.05734825E1,3.7466102E0,-3.902063E-2,-2.7646863E-1,3.7E1,3.5E0,-3.003802E-1,-8.4186085E-2,8.5983954E-2,3.4623784E-1,-2.2711504E-1,4.635E2,7.2620773E-1,6.4173204E-1,1.45E1,-3.8308067E0,1.115E3,7.245917E-3,-3.077171E1,-5.0788508E4,1.4906344E-1,-2.2354607E-1,3.815952E2,-1.397365E-1,-6.021521E-2,2.1245159E-1,-2.311066E-1,2.8565073E-2,-9.31783E-2,1.7981431E-1,1.376527E-1,-1.9545211E-1,-1.2626503E-1,3.5863895E-2,1.0029949E-2,-1.8851921E-1,-3.0982184E-1,1.8232822E-3,3.4656674E-1,-8.359377E-2,3.8853973E-2,-2.6354948E-1,4.5329946E-1,7.2186805E-2],"split_indices":[8,4,28,27,6,66,66,47,4,5,66,10,26,0,28,63,0,0,6,68,6,7,66,0,0,37,34,0,0,0,0,0,35,7,2,26,8,29,0,4,24,0,0,68,0,0,0,0,0,0,0,0,0,0,0,0,0,0,0,0,0,0,0,0,0],"split_type":[0,0,0,0,0,0,0,0,0,0,0,0,0,0,0,0,0,0,0,0,0,0,0,0,0,0,0,0,0,0,0,0,0,0,0,0,0,0,0,0,0,0,0,0,0,0,0,0,0,0,0,0,0,0,0,0,0,0,0,0,0,0,0,0,0],"sum_hessian":[3.7763992E2,3.4383282E2,3.3807095E1,2.5177046E1,3.1865576E2,1.6615887E1,1.7191208E1,1.0941852E1,1.4235193E1,2.8536026E2,3.3295498E1,7.393158E0,9.222728E0,1.0267217E0,1.6164486E1,9.231396E0,1.7104558E0,2.8289351E0,1.1406259E1,4.806561E1,2.3729466E2,2.161601E1,1.1679488E1,1.2426269E0,6.1505313E0,4.4197783E0,4.80295E0,1.5141724E1,1.0227629E0,1.103012E0,8.128384E0,4.325246E0,7.0810127E0,3.932131E1,8.744298E0,1.7620354E2,6.109112E1,2.0109856E1,1.506154E0,3.633028E0,8.04646E0,1.1009135E0,3.3188646E0,3.3522346E0,1.4507153E0,1.1989591E0,3.1262867E0,4.1317596E0,2.9492528E0,3.4913888E0,3.582992E1,3.0297458E0,5.7145524E0,3.9005833E1,1.3719771E2,1.8783602E1,4.230752E1,1.8940666E1,1.1691896E0,2.5989752E0,1.0340528E0,2.3019893E0,5.7444706E0,1.752046E0,1.6001886E0],"tree_param":{"num_deleted":"0","num_feature":"69","num_nodes":"65","size_leaf_vector":"0"}},{"base_weights":[-8.402964E-2,-1.576747E-1,2.2627719E-1,-2.1318789E-1,4.2718062E-1,1.4046976E-1,1.2064309E0,1.3938774E-1,-3.0474722E-1,-8.461921E-3,1.0062007E0,5.690919E-1,-2.5169272E-2,1.4451259E0,9.074711E-2,-4.9943876E-1,2.90214E-1,-1.8711954E-1,-5.916001E-1,-5.958721E-1,3.6330613E-1,1.2112921E0,-3.550801E-1,7.5107265E-1,-3.413864E-1,2.5784162E-1,-3.6586726E-1,4.099235E-1,-8.9157706E-1,7.261941E-2,7.477912E-1,7.1515894E-1,-2.2778784E-1,-2.1008946E-1,-8.342635E-1,-8.050639E-1,6.5895565E-2,-2.0917176E-1,9.0060246E-1,1.6915337E0,2.5114006E-1,9.42629E-1,-2.859262E-1,3.0550855E-1,-7.988005E-1,4.3102533E-2,1.2066853E0,-6.2157464E-1,4.0738007E-1,-4.582941E-1,1.0854591E0,-9.9459004E-1,-9.175005E-2,6.2319225E-1,-1.7276537E-1,9.842645E-1,-2.7164745E-1,1.5268315E0,-4.4985163E-1,-4.7800145E-1,-5.7940573E-2,-4.1444623E-1,4.586481E-1,-9.8063356E-1,2.938475E-1,-5.323129E-1,2.6444477E-1,1.1393659E0,-3.4264058E-2,1.411641E-1,2.1563036E0,-4.567073E-1,6.5892154E-1,1.0190231E0,3.716472E-2,-7.8524286E-1,3.1908387E-1,5.98879E-1,-1.7638166E-1,1.355811E0,3.3669776E-1,-1.0153726E-1,-8.583972E-1,1.0256301E0,-2.580804E-1],"categories":[],"categories_nodes":[],"categories_segments":[],"categories_sizes":[],"default_left":[true,true,true,true,true,true,true,true,true,true,true,true,true,false,false,true,true,true,true,true,true,true,false,true,true,true,true,true,true,true,true,true,true,true,true,false,false,true,true,true,true,true,true,false,false,true,true,true,true,false,false,false,false,false,false,false,false,false,false,false,false,false,false,false,false,false,false,false,false,false,false,false,false,false,false,false,false,false,false,false,false,false,false,false,false],"id":11,"left_children":[1,3,5,7,9,11,13,15,17,19,21,23,25,-1,-1,27,29,31,33,35,37,39,-1,41,43,45,47,49,51,53,55,57,59,61,63,-1,-1,65,67,69,71,73,75,-1,-1,77,79,81,83,-1,-1,-1,-1,-1,-1,-1,-1,-1,-1,-1,-1,-1,-1,-1,-1,-1,-1,-1,-1,-1,-1,-1,-1,-1,-1,-1,-1,-1,-1,-1,-1,-1,-1,-1,-1],"loss_changes":[8.2467985E0,9.538359E0,5.6614056E0,8.642999E0,6.4553547E0,4.6205716E0,1.319983E0,5.503026E0,7.036234E0,3.6180363E0,3.4959984E0,3.259758E0,4.6987867E0,0E0,0E0,4.284156E0,4.487955E0,5.7285724E0,5.484514E0,9.4125533E-1,3.313589E0,4.0803375E0,0E0,3.332491E0,1.3409324E0,5.3824525E0,4.6193376E0,2.841179E0,5.6731844E-1,4.434371E0,3.7857914E0,7.101141E0,6.172528E0,3.6208653E0,6.4027042E0,0E0,0E0,1.0178099E0,1.2510085E0,4.2628765E0,1.5801839E0,8.7851715E-1,1.20863E0,0E0,0E0,2.8852222E0,1.7729759E-1,2.0052843E0,2.770934E0,0E0,0E0,0E0,0E0,0E0,0E0,0E0,0E0,0E0,0E0,0E0,0E0,0E0,0E0,0E0,0E0,0E0,0E0,0E0,0E0,0E0,0E0,0E0,0E0,0E0,0E0,0E0,0E0,0E0,0E0,0E0,0E0,0E0,0E0,0E0,0E0],"parents":[2147483647,0,0,1,1,2,2,3,3,4,4,5,5,6,6,7,7,8,8,9,9,10,10,11,11,12,12,15,15,16,16,17,17,18,18,19,19,20,20,21,21,23,23,24,24,25,25,26,26,27,27,28,28,29,29,30,30,31,31,32,32,33,33,34,34,37,37,38,38,39,39,40,40,41,41,42,42,45,45,46,46,47,47,48,48],"right_children":[2,4,6,8,10,12,14,16,18,20,22,24,26,-1,-1,28,30,32,34,36,38,40,-1,42,44,46,48,50,52,54,56,58,60,62,64,-1,-1,66,68,70,72,74,76,-1,-1,78,80,82,84,-1,-1,-1,-1,-1,-1,-1,-1,-1,-1,-1,-1,-1,-1,-1,-1,-1,-1,-1,-1,-1,-1,-1,-1,-1,-1,-1,-1,-1,-1,-1,-1,-1,-1,-1,-1],"split_conditions":[2.5E0,2.005E2,1.95E2,2.5E0,3.599702E0,-3.3993942E1,4.210596E2,2.11595E0,-2.2508884E1,5E-1,-1.922802E1,-2.8087368E1,7.10755E2,4.335378E-1,2.7224135E-2,-1.1005883E0,1.0332576E1,2.3445E3,6.3775E2,1.345E2,3.53751E0,7.73144E0,-1.06524035E-1,4.05357E0,8.338202E0,2.8815E3,1.5429945E1,8.1965E1,1.46E2,-6.385647E4,4.1496E0,5.8316402E0,8.675E2,3.75E1,2.2319294E1,-2.4151918E-1,1.976867E-2,1.2697956E1,-2.695161E1,-1.4136839E0,8.275E2,1.24885E2,3.625E2,9.165257E-2,-2.3964016E-1,1.14379086E-1,6.73E2,1.75E1,7.87E2,-1.3748823E-1,3.2563776E-1,-2.9837704E-1,-2.7525015E-2,1.8695769E-1,-5.1829614E-2,2.9527935E-1,-8.149424E-2,4.5804948E-1,-1.349555E-1,-1.4340045E-1,-1.7382173E-2,-1.2433387E-1,1.3759443E-1,-2.9419008E-1,8.815426E-2,-1.5969388E-1,7.933343E-2,3.4180978E-1,-1.0279218E-2,4.234923E-2,6.468911E-1,-1.370122E-1,1.9767646E-1,3.0570692E-1,1.1149417E-2,-2.3557286E-1,9.5725164E-2,1.796637E-1,-5.29145E-2,4.0674332E-1,1.0100933E-1,-3.046118E-2,-2.5751916E-1,3.0768904E-1,-7.7424124E-2],"split_indices":[25,51,39,13,7,5,68,66,4,25,4,4,1,0,0,10,11,27,1,36,66,6,0,66,6,27,11,67,16,24,66,6,29,48,11,0,0,11,4,10,29,67,35,0,0,63,31,30,28,0,0,0,0,0,0,0,0,0,0,0,0,0,0,0,0,0,0,0,0,0,0,0,0,0,0,0,0,0,0,0,0,0,0,0,0],"split_type":[0,0,0,0,0,0,0,0,0,0,0,0,0,0,0,0,0,0,0,0,0,0,0,0,0,0,0,0,0,0,0,0,0,0,0,0,0,0,0,0,0,0,0,0,0,0,0,0,0,0,0,0,0,0,0,0,0,0,0,0,0,0,0,0,0,0,0,0,0,0,0,0,0,0,0,0,0,0,0,0,0,0,0,0,0],"sum_hessian":[3.583085E2,2.8997958E2,6.832892E1,2.654218E2,2.4557774E1,6.387988E1,4.4490414E0,5.4609562E1,2.1081224E2,1.4576276E1,9.981498E0,1.7126389E1,4.6753487E1,3.4217024E0,1.027339E0,9.98913E0,4.4620434E1,1.5067738E2,6.0134857E1,5.4159794E0,9.160296E0,8.770335E0,1.2111624E0,1.4419407E1,2.7069824E0,2.5671713E1,2.1081776E1,2.9960303E0,6.993099E0,3.1025421E1,1.3595012E1,5.7832537E0,1.4489412E2,2.4104301E1,3.6030556E1,3.950613E0,1.4653665E0,4.730618E0,4.429678E0,5.3384533E0,3.4318817E0,1.2247947E1,2.1714604E0,1.2588121E0,1.4481704E0,2.1786493E1,3.8852193E0,1.5990109E1,5.0916657E0,1.451765E0,1.5442654E0,5.979472E0,1.013627E0,9.090131E0,2.1935291E1,1.106324E1,2.5317721E0,3.2254694E0,2.5577846E0,5.785284E1,8.704128E1,1.8753693E1,5.350609E0,3.2008278E1,4.0222774E0,2.7383516E0,1.9922667E0,3.3542585E0,1.0754195E0,1.531947E0,3.8065062E0,1.2105567E0,2.221325E0,1.1179331E1,1.0686158E0,1.0264376E0,1.1450226E0,5.6786017E0,1.6107891E1,2.8399875E0,1.0452319E0,5.4503846E0,1.0539725E1,2.3588905E0,2.7327752E0],"tree_param":{"num_deleted":"0","num_feature":"69","num_nodes":"85","size_leaf_vector":"0"}},{"base_weights":[-6.0581304E-2,-6.7739366E-3,-4.4924784E-1,1.8323582E-1,-1.6515529E-1,-6.8619964E-3,-7.8785497E-1,6.0257787E-1,7.789889E-2,-3.041796E-1,2.405745E-1,2.8023368E-1,-5.407497E-1,-3.7411606E-1,-9.2314255E-1,2.0822278E-1,1.3174748E0,-2.5660146E-2,6.207645E-1,-9.441187E-3,-5.6318337E-1,3.8875073E-1,-5.6392175E-1,4.866516E-1,-7.4538636E-1,-8.1435096E-1,4.7712646E-2,-7.299505E-1,3.6727935E-1,-9.878053E-1,4.9268298E-2,3.9356425E-1,-4.6259108E-1,1.4710534E0,4.2336535E-1,4.254161E-1,-1.3950576E-1,9.194894E-1,-2.6154166E-1,-2.3737279E-1,3.97212E-1,-6.4452446E-1,4.5178226E-1,1.084068E0,2.0024735E-1,2.457303E-1,-7.7741903E-1,6.7617905E-1,-4.6988338E-1,-1.9565837E-1,-9.376239E-1,2.857717E-1,-2.1121494E-1,-9.0618014E-1,-1.6130866E-2,-4.0904593E-1,9.7087795E-1,-2.8845996E-1,-1.0170951E0,-1.1470745E-1,6.1175233E-1,3.0976522E-1,-7.9141486E-1,1.5972748E0,3.7968832E-1,6.504861E-1,-3.2736382E-1,6.788148E-1,-2.0408724E-1,-2.4469087E-1,1.0947123E0,3.9310813E-1,-6.578744E-1,-7.218896E-1,7.954262E-2,8.2360035E-1,3.681965E-2,-7.350464E-1,1.2807043E-1,-3.2229525E-1,1.0238217E0,-3.033585E-1,1.3926234E0,5.1851946E-1,-2.6456216E-1,-1.5529871E-1,-8.750755E-1,8.565423E-1,-4.3866703E-1],"categories":[],"categories_nodes":[],"categories_segments":[],"categories_sizes":[],"default_left":[true,true,true,true,true,true,true,true,true,true,true,true,true,true,true,true,true,true,true,true,true,true,true,true,false,true,true,true,true,true,false,true,true,true,false,true,true,true,true,true,true,true,true,true,true,false,true,true,false,false,false,false,false,false,false,false,false,false,false,false,false,false,false,false,false,false,false,false,false,false,false,false,false,false,false,false,false,false,false,false,false,false,false,false,false,false,false,false,false],"id":12,"left_children":[1,3,5,7,9,11,13,15,17,19,21,23,25,27,29,31,33,35,37,39,41,43,45,47,-1,49,51,53,55,57,-1,59,61,63,-1,65,67,69,71,73,75,77,79,81,83,-1,85,87,-1,-1,-1,-1,-1,-1,-1,-1,-1,-1,-1,-1,-1,-1,-1,-1,-1,-1,-1,-1,-1,-1,-1,-1,-1,-1,-1,-1,-1,-1,-1,-1,-1,-1,-1,-1,-1,-1,-1,-1,-1],"loss_changes":[7.1253657E0,9.0711975E0,6.2013493E0,6.0068064E0,9.344929E0,3.0597095E0,9.678755E-1,7.4408035E0,6.2383614E0,9.3741255E0,5.2864428E0,3.1143062E0,1.1620615E0,2.236858E0,1.1175423E0,2.5225341E0,6.8738174E-1,4.8819823E0,4.924431E0,5.5152955E0,5.688921E0,4.565394E0,1.4044318E0,2.3888733E0,0E0,1.839664E-1,2.5506637E-1,6.618204E-1,1.8429347E0,3.4071922E-2,0E0,1.7657998E0,1.3968753E0,4.5955086E-1,0E0,3.4612887E0,4.141217E0,3.0212975E0,1.6268902E0,5.908439E0,3.2552576E0,4.3562202E0,2.7383208E0,3.6570396E0,4.5652523E0,0E0,2.1617198E-1,2.375493E0,0E0,0E0,0E0,0E0,0E0,0E0,0E0,0E0,0E0,0E0,0E0,0E0,0E0,0E0,0E0,0E0,0E0,0E0,0E0,0E0,0E0,0E0,0E0,0E0,0E0,0E0,0E0,0E0,0E0,0E0,0E0,0E0,0E0,0E0,0E0,0E0,0E0,0E0,0E0,0E0,0E0],"parents":[2147483647,0,0,1,1,2,2,3,3,4,4,5,5,6,6,7,7,8,8,9,9,10,10,11,11,12,12,13,13,14,14,15,15,16,16,17,17,18,18,19,19,20,20,21,21,22,22,23,23,25,25,26,26,27,27,28,28,29,29,31,31,32,32,33,33,35,35,36,36,37,37,38,38,39,39,40,40,41,41,42,42,43,43,44,44,46,46,47,47],"right_children":[2,4,6,8,10,12,14,16,18,20,22,24,26,28,30,32,34,36,38,40,42,44,46,48,-1,50,52,54,56,58,-1,60,62,64,-1,66,68,70,72,74,76,78,80,82,84,-1,86,88,-1,-1,-1,-1,-1,-1,-1,-1,-1,-1,-1,-1,-1,-1,-1,-1,-1,-1,-1,-1,-1,-1,-1,-1,-1,-1,-1,-1,-1,-1,-1,-1,-1,-1,-1,-1,-1,-1,-1,-1,-1],"split_conditions":[1.1089364E1,-2.932756E1,-3.3820435E1,7.1715E2,-5.4102384E-2,1.4473846E1,-5.1062727E4,7.785E2,6.5E0,-2.8301162E-1,-1.3808161E1,4.865603E2,-1.8954247E-1,1.3013731E1,1.1413503E5,8.5E0,2.25E1,1.65E1,1.345E2,3.01126E0,2.295E2,4.8375E2,7.417583E-2,-6.067902E-1,-2.2361591E-1,-4.1523735E1,-4.68443E0,-6.6929875E4,2.05E1,1.0818714E-1,1.478049E-2,2.25E1,1.00961536E-1,1.5E0,1.2700962E-1,2.4924436E4,-3.7506958E1,-2.297377E-1,-3.1338194E1,8.75E1,2.0526317E-1,2.3208212E1,-1.2820491E-1,2.18075E0,-1.7968761E1,7.371909E-2,-5.893509E4,9.5E0,-1.4096501E-1,-5.8697514E-2,-2.812872E-1,8.5731514E-2,-6.336448E-2,-2.7185404E-1,-4.83926E-3,-1.2271378E-1,2.912634E-1,-8.653799E-2,-3.0512854E-1,-3.4412235E-2,1.8352571E-1,9.292957E-2,-2.3742446E-1,4.7918245E-1,1.139065E-1,1.9514585E-1,-9.820915E-2,2.0364445E-1,-6.1226174E-2,-7.340726E-2,3.284137E-1,1.1793245E-1,-1.9736233E-1,-2.1656689E-1,2.3862788E-2,2.4708012E-1,1.10458955E-2,-2.2051392E-1,3.842113E-2,-9.6688576E-2,3.0714652E-1,-9.100755E-2,4.1778705E-1,1.5555584E-1,-7.936865E-2,-4.6589613E-2,-2.6252267E-1,2.569627E-1,-1.3160011E-1],"split_indices":[6,5,4,1,0,6,24,28,64,10,5,68,0,11,24,13,19,30,47,66,51,1,63,8,0,5,7,24,19,63,0,15,63,54,0,24,4,0,4,16,63,11,0,66,4,0,24,13,0,0,0,0,0,0,0,0,0,0,0,0,0,0,0,0,0,0,0,0,0,0,0,0,0,0,0,0,0,0,0,0,0,0,0,0,0,0,0,0,0],"split_type":[0,0,0,0,0,0,0,0,0,0,0,0,0,0,0,0,0,0,0,0,0,0,0,0,0,0,0,0,0,0,0,0,0,0,0,0,0,0,0,0,0,0,0,0,0,0,0,0,0,0,0,0,0,0,0,0,0,0,0,0,0,0,0,0,0,0,0,0,0,0,0,0,0,0,0,0,0,0,0,0,0,0,0,0,0,0,0,0,0],"sum_hessian":[3.3985815E2,2.9942316E2,4.0435E1,1.360488E2,1.6337436E2,1.7973335E1,2.2461666E1,2.6366068E1,1.0968273E2,1.21866714E2,4.150764E1,1.1997072E1,5.9762635E0,6.4626904E0,1.5998976E1,1.782475E1,8.541316E0,9.2911354E1,1.6771378E1,5.7485924E1,6.438079E1,3.548805E1,6.019593E0,1.0424521E1,1.5725505E0,3.817488E0,2.1587756E0,4.377254E0,2.085436E0,1.4986576E1,1.0123994E0,1.428986E1,3.5348916E0,6.738579E0,1.8027376E0,1.8172386E1,7.473896E1,1.2497815E1,4.273564E0,3.7104755E1,2.0381166E1,5.994192E1,4.438871E0,6.555688E0,2.8932362E1,1.2245855E0,4.795007E0,8.945215E0,1.4793061E0,1.0640984E0,2.7533896E0,1.0706978E0,1.0880778E0,3.294435E0,1.0828191E0,1.0531877E0,1.0322484E0,1.0385224E0,1.3948054E1,4.434323E0,9.855537E0,1.0728626E0,2.4620292E0,5.62452E0,1.1140587E0,1.4094291E1,4.078096E0,4.77122E0,6.996774E1,1.5831189E0,1.0914696E1,1.6146585E0,2.6589053E0,1.4167254E1,2.2937502E1,8.747047E0,1.163412E1,5.3698837E1,6.243084E0,2.071851E0,2.3670201E0,1.1957618E0,5.359926E0,1.7104637E1,1.1827724E1,1.002003E0,3.793004E0,7.8989873E0,1.0462279E0],"tree_param":{"num_deleted":"0","num_feature":"69","num_nodes":"89","size_leaf_vector":"0"}},{"base_weights":[-4.946312E-2,-5.273038E-1,-9.349599E-3,-8.5285705E-1,-1.259205E-1,-3.1526145E-2,1.0687224E0,7.333516E-2,-9.371307E-1,-4.603695E-1,7.9578954E-1,9.491972E-2,-2.1893662E-1,1.3572234E0,-1.6575788E-1,-1.0019577E0,-3.9590305E-1,3.1249824E-1,-7.973529E-1,1.0873492E0,2.9142555E-2,-6.304792E-2,3.1442326E-1,1.7049964E-1,-3.3347E-1,2.3197849E-1,1.586512E0,6.6878116E-1,-2.117401E-1,-9.0353155E-1,-2.4302891E-1,4.744E-2,-4.7316748E-1,2.8336717E-2,5.8261585E-1,4.0427315E-1,-5.168892E-1,-4.2093387E-1,3.3937037E-1,1.928515E0,5.0814867E-1,-3.9150592E-2,9.890935E-1,-6.7999405E-1,4.9739206E-1,7.409745E-1,-1.5990126E-1,7.8545165E-1,6.510869E-2,6.8064923E-3,1.049688E0,4.2331412E-1,-9.441281E-1,-4.8803595E-1,4.117277E-1,-2.2267579E-1,7.825507E-1],"categories":[],"categories_nodes":[],"categories_segments":[],"categories_sizes":[],"default_left":[true,true,true,true,true,true,true,false,true,true,true,true,true,true,false,false,false,true,true,false,false,true,true,true,true,false,true,false,false,false,false,true,true,true,true,true,true,true,true,false,false,false,false,false,false,false,false,false,false,false,false,false,false,false,false,false,false],"id":13,"left_children":[1,3,5,7,9,11,13,-1,15,17,19,21,23,25,-1,-1,-1,27,29,-1,-1,31,33,35,37,-1,39,-1,-1,-1,-1,41,43,45,47,49,51,53,55,-1,-1,-1,-1,-1,-1,-1,-1,-1,-1,-1,-1,-1,-1,-1,-1,-1,-1],"loss_changes":[6.1775374E0,3.1543884E0,7.1721535E0,1.1309977E0,4.174082E0,6.9767556E0,2.3785472E0,0E0,4.3549538E-2,2.774669E0,7.853358E-1,6.121611E0,5.345092E0,9.246292E-1,0E0,0E0,0E0,8.257161E-1,1.9443083E-1,0E0,0E0,4.69712E0,5.6466637E0,4.6450925E0,5.5543327E0,0E0,4.9186802E-1,0E0,0E0,0E0,0E0,6.7393885E0,4.751516E0,5.050307E0,3.942439E0,5.4214034E0,3.390174E0,4.772661E0,2.9470897E0,0E0,0E0,0E0,0E0,0E0,0E0,0E0,0E0,0E0,0E0,0E0,0E0,0E0,0E0,0E0,0E0,0E0,0E0],"parents":[2147483647,0,0,1,1,2,2,3,3,4,4,5,5,6,6,8,8,9,9,10,10,11,11,12,12,13,13,17,17,18,18,21,21,22,22,23,23,24,24,26,26,31,31,32,32,33,33,34,34,35,35,36,36,37,37,38,38],"right_children":[2,4,6,8,10,12,14,-1,16,18,20,22,24,26,-1,-1,-1,28,30,-1,-1,32,34,36,38,-1,40,-1,-1,-1,-1,42,44,46,48,50,52,54,56,-1,-1,-1,-1,-1,-1,-1,-1,-1,-1,-1,-1,-1,-1,-1,-1,-1,-1],"split_conditions":[1.3464E0,5.07E2,7.4456525E-1,-8.379438E0,-5.102939E-2,4.2140588E2,-4.0349233E-1,2.200055E-2,4.415E2,-2.9967201E1,-1.9958172E1,7.7065E1,-1.6931851E0,1.2E1,-4.9727365E-2,-3.005873E-1,-1.1877092E-1,4.167931E2,8.5E0,3.2620478E-1,8.742766E-3,-2.0167463E1,2.64891E0,1.5E0,6.5E0,6.959355E-2,5.9E1,2.0063436E-1,-6.352203E-2,-2.7105948E-1,-7.290868E-2,-8.52824E-2,3.9274302E0,-2.9876427E1,1.75E1,1.0277265E1,1.685E2,1.975E2,3.2456142E-1,5.785545E-1,1.524446E-1,-1.1745178E-2,2.9672804E-1,-2.0399822E-1,1.4921762E-1,2.2229235E-1,-4.797038E-2,2.356355E-1,1.9532606E-2,2.0419478E-3,3.1490642E-1,1.2699424E-1,-2.8323844E-1,-1.464108E-1,1.2351831E-1,-6.680274E-2,2.3476522E-1],"split_indices":[66,35,63,8,0,68,8,0,35,5,4,67,9,30,0,0,0,68,13,0,0,4,66,17,64,0,30,0,0,0,0,0,66,4,19,11,33,47,63,0,0,0,0,0,0,0,0,0,0,0,0,0,0,0,0,0,0],"split_type":[0,0,0,0,0,0,0,0,0,0,0,0,0,0,0,0,0,0,0,0,0,0,0,0,0,0,0,0,0,0,0,0,0,0,0,0,0,0,0,0,0,0,0,0,0,0,0,0,0,0,0,0,0,0,0,0,0],"sum_hessian":[3.2154318E2,2.3961653E1,2.9758154E2,1.2609537E1,1.1352115E1,2.925347E2,5.046846E0,1.0624701E0,1.1547068E1,8.696907E0,2.6552072E0,1.7497354E2,1.1756115E2,4.010219E0,1.0366266E0,9.551718E0,1.9953498E0,2.6626983E0,6.034209E0,1.6205763E0,1.0346309E0,1.0216348E2,7.281007E1,2.660618E1,9.095496E1,1.0193657E0,2.9908535E0,1.4211421E0,1.2415563E0,4.535484E0,1.4987249E0,8.117809E1,2.098539E1,3.576474E1,3.7045326E1,2.0161383E1,6.4447966E0,8.082301E1,1.0131956E1,1.6721567E0,1.3186969E0,7.521963E1,5.9584646E0,1.7545761E1,3.4396288E0,6.8594875E0,2.8905254E1,2.6242052E1,1.0803275E1,1.310281E1,7.0585732E0,2.0164602E0,4.4283366E0,7.517846E1,5.644555E0,4.6862955E0,5.4456606E0],"tree_param":{"num_deleted":"0","num_feature":"69","num_nodes":"57","size_leaf_vector":"0"}},{"base_weights":[-3.450604E-2,3.426388E-3,-4.9291447E-1,-1.3629268E-2,1.0455234E0,-1.7987412E-1,-8.189771E-1,-3.4797333E-2,8.67665E-1,1.6969465E0,-3.7271187E-1,-7.041809E-1,1.5476154E-1,-3.80987E-2,-8.919999E-1,-5.389057E-2,8.771079E-1,-1.327179E-1,1.1562349E0,2.0653424E0,5.7958263E-1,-1.24025285E-1,-8.0859935E-1,-3.2843015E-1,6.963326E-1,-9.3511856E-1,-2.5073257E-1,-1.1803142E-1,2.3810701E-1,1.2474992E0,9.637402E-2,9.3595356E-2,1.4044648E0,4.8385414E-1,-6.2522656E-1,-1.5146771E-1,1.0456733E0,3.6907363E-1,-1.6673976E-1,-1.622859E-1,5.833061E-1,3.5362655E-1,1.6643116E0,-7.511973E-2,-7.7042353E-1],"categories":[],"categories_nodes":[],"categories_segments":[],"categories_sizes":[],"default_left":[true,true,true,true,true,true,true,true,true,true,false,true,true,false,true,true,true,false,true,false,false,false,false,true,true,false,false,true,true,true,false,false,false,false,true,false,false,false,false,false,false,false,false,false,false],"id":14,"left_children":[1,3,5,7,9,11,13,15,17,19,-1,21,23,-1,25,27,29,-1,31,-1,-1,-1,-1,33,35,-1,-1,37,39,41,-1,-1,-1,-1,43,-1,-1,-1,-1,-1,-1,-1,-1,-1,-1],"loss_changes":[5.4117646E0,5.139176E0,2.2804046E0,5.3411303E0,4.934114E0,2.4628568E0,6.142731E-1,4.9045086E0,2.092279E0,1.904459E-1,0E0,2.2726107E-1,2.5862305E0,0E0,5.1768303E-2,5.163451E0,1.5509663E0,0E0,1.2706718E0,0E0,0E0,0E0,0E0,1.6141771E0,1.5114267E0,0E0,0E0,5.41127E0,6.9658623E0,8.406215E-1,0E0,0E0,0E0,0E0,2.9524815E-1,0E0,0E0,0E0,0E0,0E0,0E0,0E0,0E0,0E0,0E0],"parents":[2147483647,0,0,1,1,2,2,3,3,4,4,5,5,6,6,7,7,8,8,9,9,11,11,12,12,14,14,15,15,16,16,18,18,23,23,24,24,27,27,28,28,29,29,34,34],"right_children":[2,4,6,8,10,12,14,16,18,20,-1,22,24,-1,26,28,30,-1,32,-1,-1,-1,-1,34,36,-1,-1,38,40,42,-1,-1,-1,-1,44,-1,-1,-1,-1,-1,-1,-1,-1,-1,-1],"split_conditions":[-2.539287E-1,-3.1192967E-1,6.985E2,1.545E2,3.3928099E0,2.88865E0,1.59082E0,7.4456525E-1,-2.0849255E-1,6.2175003E1,-1.1181357E-1,-7.1E-15,6.0706162E0,-1.1429611E-2,1.053E3,1.5507897E1,8.1801474E-1,-3.9815374E-2,2.7668223E0,6.1960274E-1,1.738748E-1,-3.720759E-2,-2.4257982E-1,3.1160698E0,2.2E1,-2.8053558E-1,-7.521977E-2,-2.993609E0,4.5E0,5E-1,2.8912207E-2,2.8078608E-2,4.2133948E-1,1.4515625E-1,3.81E2,-4.5440316E-2,3.13702E-1,1.10722095E-1,-5.002193E-2,-4.868577E-2,1.7499183E-1,1.0608797E-1,4.992935E-1,-2.2535918E-2,-2.3112707E-1],"split_indices":[8,8,28,41,66,66,66,63,0,67,0,10,6,0,29,11,63,0,11,0,0,0,0,66,26,0,0,9,64,18,0,0,0,0,28,0,0,0,0,0,0,0,0,0,0],"split_type":[0,0,0,0,0,0,0,0,0,0,0,0,0,0,0,0,0,0,0,0,0,0,0,0,0,0,0,0,0,0,0,0,0,0,0,0,0,0,0,0,0,0,0,0,0],"sum_hessian":[3.1012872E2,2.873441E2,2.2784653E1,2.8368796E2,3.6561055E0,1.2416092E1,1.0368561E1,2.779718E2,5.7161703E0,2.3706841E0,1.2854214E0,4.4069567E0,8.009135E0,1.0168186E0,9.351742E0,2.7319266E2,4.7791348E0,1.4006457E0,4.3155246E0,1.1448272E0,1.225857E0,1.0058975E0,3.401059E0,4.440693E0,3.5684423E0,8.333186E0,1.0185564E0,2.244789E2,4.871376E1,2.835893E0,1.9432421E0,1.0779624E0,3.2375622E0,1.0196948E0,3.4209979E0,1.2066041E0,2.3618383E0,1.9808447E1,2.0467046E2,2.2799143E1,2.591462E1,1.4896595E0,1.3462332E0,1.0312546E0,2.3897433E0],"tree_param":{"num_deleted":"0","num_feature":"69","num_nodes":"45","size_leaf_vector":"0"}},{"base_weights":[-2.1977156E-2,1.883242E-2,-4.2158553E-1,-6.30836E-2,2.821228E-1,2.2458597E-1,-6.20913E-1,5.405012E-1,-9.9411786E-2,9.3219906E-1,6.955254E-2,-3.059153E-1,6.134784E-1,3.4018922E-1,-6.866341E-1,-2.813003E-1,7.1025413E-1,-1.5775341E-1,3.201913E-1,1.2493218E0,1.6774869E-1,-1.4100951E-1,4.1494766E-1,-5.328453E-1,9.726982E-2,8.824503E-1,-1.324887E-1,-1.7833129E-1,-8.1206095E-1,8.4848934E-1,-6.316284E-2,-2.8650594E-1,8.872059E-2,-1.09064795E-1,6.3257116E-1,1.4838755E0,-9.469039E-2,6.6287684E-1,-3.6185107E-1,-5.9703636E-1,1.7390583E-1,5.620413E-1,-1.020282E0,4.210531E-1,-5.144318E-1,-4.176163E-2,-8.862295E-1,9.491452E-1,1.551044E-1,-2.4720151E-2,-4.9120912E-1,-4.3112773E-2,9.616835E-1,1.2009879E-1,-8.3758974E-1,-2.9429132E-2,8.732436E-1,9.501986E-2,1.6338239E0,1.1949468E-1,8.491782E-1,-7.625278E-1,1.472634E-1,4.696165E-1,-9.0545213E-1,3.703299E-1,-7.169168E-1,8.545318E-1,4.180682E-2,-7.203879E-1,2.4815833E-2,-2.9214454E-1,-9.457343E-1],"categories":[],"categories_nodes":[],"categories_segments":[],"categories_sizes":[],"default_left":[true,true,true,true,true,true,true,true,true,true,true,true,true,false,true,false,true,true,true,true,true,true,true,false,false,false,false,true,true,true,false,true,true,true,true,true,false,true,true,true,true,true,false,false,true,false,true,false,false,false,false,false,false,false,false,false,false,false,false,false,false,false,false,false,false,false,false,false,false,false,false,false,false],"id":15,"left_children":[1,3,5,7,9,11,13,15,17,19,21,23,25,-1,27,-1,29,31,33,35,37,39,41,-1,-1,-1,-1,43,45,47,-1,49,51,53,55,57,-1,59,61,63,65,67,-1,-1,69,-1,71,-1,-1,-1,-1,-1,-1,-1,-1,-1,-1,-1,-1,-1,-1,-1,-1,-1,-1,-1,-1,-1,-1,-1,-1,-1,-1],"loss_changes":[4.967441E0,5.989782E0,3.7745113E0,4.70242E0,9.040119E0,1.7118523E0,1.6127682E0,1.9004853E0,4.9665303E0,3.7069044E0,3.7481964E0,3.98801E-1,1.0390022E0,0E0,1.1792755E0,0E0,1.1641722E0,5.641474E0,3.4002278E0,3.6912422E0,1.7848489E0,4.737405E0,4.683444E0,0E0,0E0,0E0,0E0,1.3028134E0,8.9861965E-1,4.7267628E-1,0E0,6.2300224E0,7.1178975E0,1.9899743E0,2.3400817E0,1.8544006E0,0E0,2.425369E-1,8.249848E-1,4.835169E0,3.7405436E0,2.7493668E0,0E0,0E0,4.5154607E-1,0E0,2.5004292E-1,0E0,0E0,0E0,0E0,0E0,0E0,0E0,0E0,0E0,0E0,0E0,0E0,0E0,0E0,0E0,0E0,0E0,0E0,0E0,0E0,0E0,0E0,0E0,0E0,0E0,0E0],"parents":[2147483647,0,0,1,1,2,2,3,3,4,4,5,5,6,6,7,7,8,8,9,9,10,10,11,11,12,12,14,14,16,16,17,17,18,18,19,19,20,20,21,21,22,22,27,27,28,28,29,29,31,31,32,32,33,33,34,34,35,35,37,37,38,38,39,39,40,40,41,41,44,44,46,46],"right_children":[2,4,6,8,10,12,14,16,18,20,22,24,26,-1,28,-1,30,32,34,36,38,40,42,-1,-1,-1,-1,44,46,48,-1,50,52,54,56,58,-1,60,62,64,66,68,-1,-1,70,-1,72,-1,-1,-1,-1,-1,-1,-1,-1,-1,-1,-1,-1,-1,-1,-1,-1,-1,-1,-1,-1,-1,-1,-1,-1,-1,-1],"split_conditions":[1.1481588E1,8.425E2,-4.0767647E1,4.6536796E-2,4.0371576E2,9.5E1,5E-1,2.6066998E2,4.75E1,3.6992002E0,1.0346325E1,1.5E0,-3.5818535E1,1.0205677E-1,-8.692145E4,-8.43901E-2,4.85E1,-1.0397872E-1,3.629685E0,-7.254518E-1,5.5E0,2.8174603E-1,4.60205E0,-1.598536E-1,2.9180946E-2,2.647351E-1,-3.9746612E-2,4.077451E2,-2.131051E0,1.25E1,-1.8948853E-2,-3.0505814E1,1.45E1,2.5E0,-8.617325E4,-1.2294762E0,-2.8407117E-2,1.3649997E0,5E1,-4.852008E0,-9.7255605E-1,4.5683984E2,-3.0608463E-1,1.2631594E-1,1.1963526E1,-1.2528489E-2,-3.9198215E0,2.8474358E-1,4.653132E-2,-7.4160458E-3,-1.4736274E-1,-1.2933833E-2,2.8850508E-1,3.602964E-2,-2.5127694E-1,-8.82874E-3,2.6197308E-1,2.850596E-2,4.9014717E-1,3.5848405E-2,2.5475347E-1,-2.2875835E-1,4.417902E-2,1.4088495E-1,-2.7163565E-1,1.1109897E-1,-2.1507505E-1,2.5635955E-1,1.2542047E-2,-2.1611637E-1,7.44475E-3,-8.764336E-2,-2.837203E-1],"split_indices":[6,28,5,63,68,36,13,68,52,66,11,25,4,0,24,0,48,0,7,8,13,63,66,0,0,0,0,68,9,34,0,5,17,65,24,7,0,7,16,8,8,68,0,0,11,0,8,0,0,0,0,0,0,0,0,0,0,0,0,0,0,0,0,0,0,0,0,0,0,0,0,0,0],"split_type":[0,0,0,0,0,0,0,0,0,0,0,0,0,0,0,0,0,0,0,0,0,0,0,0,0,0,0,0,0,0,0,0,0,0,0,0,0,0,0,0,0,0,0,0,0,0,0,0,0,0,0,0,0,0,0,0,0,0,0,0,0,0,0,0,0,0,0,0,0,0,0,0,0],"sum_hessian":[3.0311743E2,2.7589484E2,2.7222593E1,2.1100613E2,6.488872E1,6.3878875E0,2.0834705E1,1.1191049E1,1.9981508E2,1.5155434E1,4.9733284E1,2.7922513E0,3.595636E0,1.0662128E0,1.9768494E1,1.8033968E0,9.387651E0,1.7597197E2,2.384311E1,1.0263481E1,4.8919525E0,3.1265034E1,1.8468252E1,1.5808762E0,1.2113751E0,2.5082722E0,1.0873638E0,4.391868E0,1.5376625E1,7.8818407E0,1.5058112E0,1.15483536E2,6.0488438E1,1.0316952E1,1.3526157E1,8.649864E0,1.6136171E0,2.3981972E0,2.493755E0,1.2405232E1,1.88598E1,1.7303272E1,1.1649792E0,1.4870969E0,2.9047716E0,1.4877921E0,1.3888833E1,6.560606E0,1.3212345E0,5.1167923E1,6.431561E1,5.3378E1,7.1104407E0,8.483534E0,1.8334181E0,3.8403907E0,9.685766E0,1.0020773E0,7.6477866E0,1.0313833E0,1.3668139E0,1.1169523E0,1.3768029E0,2.6651535E0,9.740079E0,1.5931278E1,2.9285219E0,1.0664692E1,6.6385813E0,1.858889E0,1.0458825E0,1.8025094E0,1.2086324E1],"tree_param":{"num_deleted":"0","num_feature":"69","num_nodes":"73","size_leaf_vector":"0"}},{"base_weights":[-1.7076127E-2,7.880858E-2,-1.8147002E-1,1.4114061E-2,5.243883E-1,-2.3407722E-1,4.6539032E-1,-4.3052775E-1,8.031544E-2,7.6287764E-1,-3.510081E-2,-3.8566867E-1,1.4909864E-2,6.719924E-1,-1.3473283E-1,-1.2768847E-1,-8.9758897E-1,2.424514E-1,-1.4457282E-1,9.1323E-1,-1.8133551E-1,4.1089493E-1,-7.65542E-1,-4.350121E-1,7.572936E-1,5.224219E-1,-1.6509673E-1,-5.3634234E-2,9.727577E-1,-5.985792E-1,3.063668E-1,-9.6638244E-1,-2.069729E-1,3.5704923E-1,-1.7208336E-1,3.5735786E-1,-3.0465636E-1,1.0120248E0,9.466785E-2,-7.632032E-1,4.816583E-1,-3.0433878E-1,6.3802874E-1,-4.9248236E-1,5.860835E-1,7.884984E-1,-5.151697E-1,-5.2486E-1,2.0403288E-1,1.8916829E-1,1.1611376E0,-8.490118E-1,4.3557248E-1,7.36724E-1,-1.9501656E-1,6.024847E-1,1.24570295E-1,4.962423E-1,-4.9983895E-1,-4.0081376E-1,5.2535194E-1,-4.8006117E-1,1.7548136E-1,1.1299446E0,2.1473269E-1,-1.0490383E-1,9.480443E-1,-5.83544E-1,2.6315165E-1,8.277291E-1,3.2677662E-3,2.6799414E-1,1.6228181E0,4.0957254E-1,-7.340115E-1,5.0111866E-1,-3.0432212E-1],"categories":[],"categories_nodes":[],"categories_segments":[],"categories_sizes":[],"default_left":[true,true,true,true,true,true,true,true,true,true,true,true,true,true,false,true,true,true,true,true,true,true,false,true,false,true,true,false,true,true,true,false,false,true,true,true,true,true,false,false,false,false,true,true,true,true,false,true,true,false,false,false,false,false,false,false,false,false,false,false,false,false,false,false,false,false,false,false,false,false,false,false,false,false,false,false,false],"id":16,"left_children":[1,3,5,7,9,11,13,15,17,19,21,23,25,27,-1,29,31,33,35,37,39,41,-1,43,-1,45,47,-1,49,51,53,-1,-1,55,57,59,61,63,-1,-1,-1,-1,65,67,69,71,-1,73,75,-1,-1,-1,-1,-1,-1,-1,-1,-1,-1,-1,-1,-1,-1,-1,-1,-1,-1,-1,-1,-1,-1,-1,-1,-1,-1,-1,-1],"loss_changes":[4.634555E0,5.3493733E0,3.7937334E0,4.841326E0,3.1667433E0,3.8105192E0,1.1417739E0,2.9008522E0,5.248324E0,2.5141582E0,2.9171746E0,3.8652105E0,3.659171E0,1.4651349E0,0E0,3.0651345E0,1.9051504E-1,4.0258527E0,4.9719853E0,1.0716696E0,1.5661106E0,1.1057153E0,0E0,3.852682E0,0E0,3.2995048E0,4.0419474E0,0E0,4.6369886E-1,2.2088974E0,1.8694221E0,0E0,0E0,3.673933E0,4.354904E0,2.133264E0,3.9943323E0,9.5876026E-1,0E0,0E0,0E0,0E0,1.1546929E0,4.147353E0,5.173662E-1,3.3589315E0,0E0,3.287969E0,2.469945E0,0E0,0E0,0E0,0E0,0E0,0E0,0E0,0E0,0E0,0E0,0E0,0E0,0E0,0E0,0E0,0E0,0E0,0E0,0E0,0E0,0E0,0E0,0E0,0E0,0E0,0E0,0E0,0E0],"parents":[2147483647,0,0,1,1,2,2,3,3,4,4,5,5,6,6,7,7,8,8,9,9,10,10,11,11,12,12,13,13,15,15,16,16,17,17,18,18,19,19,20,20,21,21,23,23,25,25,26,26,28,28,29,29,30,30,33,33,34,34,35,35,36,36,37,37,42,42,43,43,44,44,45,45,47,47,48,48],"right_children":[2,4,6,8,10,12,14,16,18,20,22,24,26,28,-1,30,32,34,36,38,40,42,-1,44,-1,46,48,-1,50,52,54,-1,-1,56,58,60,62,64,-1,-1,-1,-1,66,68,70,72,-1,74,76,-1,-1,-1,-1,-1,-1,-1,-1,-1,-1,-1,-1,-1,-1,-1,-1,-1,-1,-1,-1,-1,-1,-1,-1,-1,-1,-1,-1],"split_conditions":[6.5E0,8.901424E0,6.0555553E-1,1.45E1,-2.0790962E1,3.2855E3,4.7785852E2,3.5E0,7.9960766E0,4.6252444E2,6.4217004E2,1.85E2,4.0375726E2,1.745E2,-4.041985E-2,2.95008E0,7.5035143E0,2.5E0,-3.5392365E1,1.35E1,8.245E2,1.4094E0,-2.296626E-1,1.5E0,2.2718808E-1,-8.7175727E-1,8.5055E1,-1.609027E-2,1.4567E0,3.869902E4,4.9E2,-2.8991476E-1,-6.2091872E-2,-2.6035116E1,5.65E1,6.8E1,1.95E1,-2.6676012E1,2.8400356E-2,-2.2896098E-1,1.444975E-1,-9.1301635E-2,9.0825E1,5.05E1,7.201E2,7.996032E-1,-1.5455091E-1,1.75E1,7.242681E0,5.6750488E-2,3.483413E-1,-2.5470355E-1,1.3067175E-1,2.2101721E-1,-5.8504973E-2,1.8074542E-1,3.737109E-2,1.488727E-1,-1.499517E-1,-1.2024413E-1,1.5760559E-1,-1.4401835E-1,5.2644413E-2,3.389834E-1,6.441981E-2,-3.147115E-2,2.844133E-1,-1.7506321E-1,7.8945495E-2,2.4831875E-1,9.803299E-4,8.039825E-2,4.8684546E-1,1.22871764E-1,-2.2020344E-1,1.5033561E-1,-9.129664E-2],"split_indices":[13,7,63,26,4,27,68,13,6,68,1,55,68,31,0,66,7,65,4,34,28,66,0,23,0,8,67,0,66,24,29,0,0,5,16,31,19,5,0,0,0,0,67,40,1,2,0,30,7,0,0,0,0,0,0,0,0,0,0,0,0,0,0,0,0,0,0,0,0,0,0,0,0,0,0,0,0],"split_type":[0,0,0,0,0,0,0,0,0,0,0,0,0,0,0,0,0,0,0,0,0,0,0,0,0,0,0,0,0,0,0,0,0,0,0,0,0,0,0,0,0,0,0,0,0,0,0,0,0,0,0,0,0,0,0,0,0,0,0,0,0,0,0,0,0,0,0,0,0,0,0,0,0,0,0,0,0],"sum_hessian":[2.9211008E2,1.8482771E2,1.0728237E2,1.6229543E2,2.253229E1,9.9803764E1,7.4786057E0,2.0319063E1,1.4197636E2,1.5543254E1,6.9890356E0,6.1693687E1,3.8110077E1,5.474249E0,2.0043566E0,1.309909E1,7.2199726E0,8.2452866E1,5.9523502E1,1.3436499E1,2.1067548E0,4.6110635E0,2.377972E0,5.973427E1,1.9594201E0,9.47996E0,2.8630116E1,1.8449045E0,3.6293445E0,6.101143E0,6.9979467E0,6.2027965E0,1.017176E0,6.470413E1,1.7748734E1,1.4095555E1,4.5427948E1,1.17785635E1,1.657936E0,1.0415263E0,1.0652286E0,1.0294534E0,3.5816102E0,5.7041496E1,2.6927717E0,7.7361875E0,1.7437732E0,1.4285354E1,1.4344763E1,1.0918491E0,2.5374956E0,5.0558357E0,1.045307E0,3.5131168E0,3.4848301E0,3.0700771E1,3.4003357E1,5.670983E0,1.207775E1,2.3053646E0,1.1790191E1,3.3272816E1,1.2155129E1,9.897492E0,1.8810706E0,1.2493175E0,2.3322928E0,5.1109962E1,5.9315314E0,1.6064746E0,1.086297E0,5.577675E0,2.1585126E0,2.4374084E0,1.1847945E1,9.0627E0,5.2820625E0],"tree_param":{"num_deleted":"0","num_feature":"69","num_nodes":"77","size_leaf_vector":"0"}},{"base_weights":[-1.1031706E-2,-5.3732604E-2,3.071939E-1,-9.507308E-2,3.0929673E-1,4.4800562E-1,-3.0619308E-1,-2.7272588E-1,5.7556825E-3,4.2626345E-1,-5.0467867E-1,5.47515E-1,-7.115855E-1,-8.180038E-1,2.9570687E-1,-3.947367E-1,2.2282116E-1,1.6628334E-1,-2.2392212E-1,-5.5599727E-2,7.4323505E-1,5.140552E-2,-7.3476654E-1,-5.598107E-1,6.542762E-1,-3.7263748E-1,6.700465E-1,-6.426545E-1,-1.9060898E-1,4.22787E-1,-5.73979E-1,2.818191E-1,-3.838235E-1,9.447287E-1,-2.610843E-1,-3.2241133E-1,6.9567573E-1,1.0654775E0,1.4032702E-1,7.371659E-1,-2.9701495E-1,-9.088718E-1,-1.952306E-1,2.4914014E-1,-4.300872E-1,-4.2260262E-1,6.080923E-1,-7.108478E-1,-1.18888006E-1,5.004814E-1,-1.00135334E-1,6.309907E-1,-5.336654E-1,8.4574424E-2,-4.0016145E-1,-5.9765476E-1,3.6859632E-1,1.2406766E0,2.2279143E-1,6.04674E-1,-3.518406E-1,-1.6775255E-1,8.0644E-1],"categories":[],"categories_nodes":[],"categories_segments":[],"categories_sizes":[],"default_left":[true,true,true,true,true,true,true,true,true,true,true,true,false,false,true,true,true,true,true,true,true,false,false,false,true,false,false,true,true,true,true,true,true,false,true,true,false,true,true,true,false,false,false,false,false,false,false,false,false,false,false,false,false,false,false,false,false,false,false,false,false,